754 100 19327
equivalent -0.03817582130432129 -0.007184094283729792 0.04838191345334053 0.13032189011573792 -0.02820044569671154 -0.16259326040744781 -0.01337416935712099 -0.07563436776399612 0.027715343981981277 -0.10957129299640656 -0.06646161526441574 0.028080690652132034 -0.17977946996688843 0.0779198631644249 -0.034338898956775665 0.21000541746616364 0.0762941762804985 -0.16355441510677338 0.03495587781071663 0.009060455486178398 -0.017014482989907265 -0.14764058589935303 0.05505523085594177 0.11752509325742722 0.04398263245820999 -0.15704882144927979 -0.04511076956987381 0.16683509945869446 0.07261159271001816 -0.08393675833940506 -0.13657121360301971 0.05836305394768715 0.18159174919128418 -0.028687724843621254 -0.06872791796922684 0.0688251480460167 0.01883440464735031 0.0314379557967186 0.09157098084688187 0.15379822254180908 0.220524400472641 -0.12865692377090454 -0.010161220096051693 -0.03658697009086609 0.12233705073595047 -0.008991321548819542 -2.60058615822345E-4 -0.011801859363913536 0.01919037476181984 -0.27602288126945496 0.1773000955581665 0.05822494253516197 0.06503670662641525 0.006690728012472391 -0.03012239560484886 0.19516621530056 -0.08117545396089554 -0.019334301352500916 0.08688370138406754 -0.07449986785650253 -0.04313495382666588 0.0922817811369896 -0.04450787603855133 -0.0292091965675354 -0.14136549830436707 -0.14241139590740204 0.004005176480859518 -0.06690352410078049 0.04464774206280708 -0.03470899909734726 0.014012475498020649 0.006357939913868904 -0.06784496456384659 -0.018678853288292885 0.03454364463686943 0.1381949931383133 -0.0787312313914299 0.05196677893400192 -0.04639804735779762 0.06834572553634644 -0.07338211685419083 -0.08908844739198685 0.017142999917268753 0.10391201078891754 -0.12794186174869537 -0.04807896539568901 -0.2910941243171692 -0.052017953246831894 -0.16069188714027405 -0.05963188037276268 -0.032924260944128036 -0.05182349681854248 0.1175631582736969 -0.015383888967335224 0.09739109128713608 0.07951071858406067 -0.004093191120773554 -0.08094055950641632 0.028278114274144173 0.21042540669441223
parent -0.01672995276749134 0.04987495020031929 0.06412485986948013 0.12512901425361633 0.11990058422088623 0.005440841894596815 -0.1027640849351883 -0.0739317238330841 0.06953153014183044 -0.123686783015728 -0.013514669612050056 -0.10901281237602234 -0.003826012136414647 0.09269560128450394 0.1743185818195343 -0.032667603343725204 0.0017295123543590307 -0.040270593017339706 -0.02562827244400978 -0.20428471267223358 -0.05842624977231026 -0.07492085546255112 0.06975717097520828 0.1551303118467331 0.05018437281250954 -0.10578041523694992 0.06480459868907928 0.010385948233306408 0.007983795367181301 -0.0618026964366436 0.06645014137029648 0.09936758130788803 -0.11243946850299835 -0.1657143235206604 -0.06008624657988548 0.14825889468193054 0.22983787953853607 0.008840636350214481 0.08231038600206375 0.17702947556972504 0.022946061566472054 -0.04747216776013374 -0.056028835475444794 -0.10288284718990326 0.05482438579201698 -0.0810035914182663 0.031089704483747482 -0.03721673786640167 0.1620938628911972 -0.04008578881621361 0.03553011640906334 0.1112796887755394 -0.06930658221244812 -0.005273505579680204 0.11796575039625168 0.05004711449146271 -0.23119403421878815 0.07513951510190964 0.08134651929140091 -0.16749855875968933 -0.11565321683883667 0.21453572809696198 -0.04800375550985336 0.10020455718040466 0.08709955215454102 0.001679705223068595 -0.12289783358573914 -0.030427230522036552 0.08640029281377792 -0.057621926069259644 0.06716877222061157 0.09967631846666336 -0.027301324531435966 0.10294618457555771 0.021532520651817322 0.11259756237268448 0.07848791778087616 -0.05543797090649605 -0.14037840068340302 -0.11724170297384262 0.030889853835105896 -0.1361289769411087 -0.1257621794939041 -0.03489183261990547 -0.15186484158039093 -0.1157536655664444 0.09811917692422867 -0.025134405121207237 0.02395540475845337 0.04682808741927147 -0.04766373708844185 0.05986247584223747 0.207818865776062 0.11554569005966187 0.1237579882144928 0.20624245703220367 -0.11463016271591187 0.08278347551822662 0.016247684136033058 -0.02543026953935623
been -0.004241584800183773 0.02568921633064747 0.07574880123138428 -0.024913093075156212 0.18257422745227814 0.15636779367923737 -0.0504024401307106 -0.06026723235845566 0.12448815256357193 -0.10216439515352249 0.07031814754009247 -0.13346853852272034 -0.19104139506816864 0.19899682700634003 0.0075222766026854515 0.10588990896940231 -0.01458571944385767 -0.03405804559588432 -0.10708796232938766 -0.007649356033653021 0.009830587543547153 -0.0868196040391922 0.05949755758047104 0.14790813624858856 -0.030674157664179802 -0.22840340435504913 -0.006780196912586689 -0.12362626194953918 -0.061437226831912994 -0.05178073048591614 -0.14057840406894684 0.006621448323130608 -0.0629551038146019 -0.15445668995380402 0.018237514421343803 0.1574917584657669 0.12897013127803802 0.036857545375823975 0.1209949254989624 0.1900225579738617 0.15026763081550598 -0.10948055982589722 -0.024716036394238472 -0.10210935026407242 0.0011486909352242947 -0.1578291356563568 0.03610721230506897 0.009244292974472046 0.10225596278905869 -0.049478787928819656 0.07641352713108063 0.06704717129468918 0.08466017246246338 -0.015488612465560436 0.17012090981006622 0.016325071454048157 -0.12194151431322098 0.04857078194618225 -0.1644008755683899 -0.29565495252609253 -0.15946944057941437 0.23877128958702087 0.09183213114738464 0.026602264493703842 0.14090214669704437 -0.07252971827983856 -0.027165967971086502 0.04541643708944321 0.13335870206356049 -0.013879210688173771 -0.09159043431282043 0.016182729974389076 -0.1184852346777916 0.11567310243844986 -0.0077736591920256615 -0.11048182845115662 -0.08208974450826645 -0.12833108007907867 -0.053127728402614594 -0.04759863764047623 0.05121297761797905 -0.01274144183844328 -0.06182294338941574 -0.0061553544364869595 0.0011045028222724795 -0.06590341031551361 0.014291713945567608 0.03484019264578819 -0.0489482618868351 -0.05788985639810562 -0.050347696989774704 0.09612495452165604 0.07054828852415085 0.012916013598442078 0.046688616275787354 -0.04682866856455803 -0.07394003123044968 0.024420425295829773 -0.08644720911979675 -0.00918552279472351
Caper 0.14024651050567627 0.007841911166906357 -0.005473327357321978 -0.01698213443160057 -0.012366889044642448 0.13610230386257172 0.12977731227874756 -0.0540122464299202 0.050747666507959366 -0.020369283854961395 -0.10279808938503265 -0.16425789892673492 -0.060168880969285965 0.16713222861289978 -0.15296009182929993 -0.14137420058250427 -0.061907604336738586 0.1929270178079605 -0.17324450612068176 0.042998306453228 0.09018305689096451 0.010157578624784946 0.17855624854564667 0.08069704473018646 0.017160186544060707 -0.07168152183294296 -0.08887402713298798 0.03174196183681488 -0.01596606895327568 -0.18595118820667267 0.033047981560230255 0.01035204716026783 0.012379361316561699 -0.14761194586753845 -0.08324014395475388 -1.5433588123414665E-4 0.057712770998477936 0.013179547153413296 0.0024224051740020514 0.14379528164863586 0.011179739609360695 0.02343946322798729 0.05952625349164009 -0.147030308842659 -0.12053151428699493 -0.011797767132520676 -0.08702757954597473 0.09698931127786636 0.038231756538152695 -0.07268467545509338 0.030901819467544556 -0.05698949843645096 -0.12913627922534943 -0.08696185797452927 7.121473317965865E-4 -0.10199492424726486 -0.09895355999469757 0.035191502422094345 -0.12030167132616043 -0.06413137167692184 -0.14043861627578735 0.08641462028026581 -0.08094345033168793 0.08234867453575134 -0.06704742461442947 -0.006543069612234831 -0.1800178587436676 0.10803205519914627 0.10355955362319946 0.12826783955097198 -0.0836804211139679 0.09730798006057739 -0.0979263111948967 0.2051127403974533 0.08970646560192108 -0.0256036389619112 -0.14314039051532745 0.13477669656276703 0.028941847383975983 0.04970435053110123 0.03992529585957527 0.07670752704143524 0.07028520852327347 -0.110788993537426 -0.09601087123155594 -0.20474566519260406 0.04642077907919884 -0.11664250493049622 -0.12253960967063904 -0.14224909245967865 0.11625999957323074 0.05121719092130661 0.17267683148384094 -0.12155795842409134 0.14759182929992676 0.0015571406111121178 0.06539098173379898 0.09645438939332962 0.06498616188764572 -0.08998572081327438
probeinconsistenttopping 0.003818835597485304 0.1095355898141861 0.1395098716020584 0.030129650607705116 0.085922010242939 0.026129456236958504 -0.11468858271837234 -0.0682191252708435 -0.006802741438150406 -0.12464922666549683 -0.08199404180049896 -0.09208522737026215 -0.056258656084537506 0.09254786372184753 -0.08946174383163452 0.03403494507074356 0.015210453420877457 -0.010873334482312202 0.07500416040420532 0.09605441242456436 -0.040029726922512054 -0.11726824939250946 -1.5209605044219643E-4 0.1532594859600067 0.020458901301026344 -0.16347220540046692 0.027646761387586594 -0.07040145993232727 -0.004061280749738216 -0.001564424717798829 0.04811832308769226 -0.09584609419107437 -0.1920698583126068 -0.08243876695632935 -0.09570237994194031 0.07374298572540283 0.15062253177165985 0.0035333079285919666 0.08852703124284744 0.1455753743648529 0.017960835248231888 0.02469424344599247 -0.18423031270503998 -0.0758160650730133 0.023104533553123474 -0.09500531107187271 -0.05813777446746826 0.042567022144794464 0.08346451073884964 -0.10572551190853119 -0.06645550578832626 0.09727698564529419 0.07804644852876663 0.0474357083439827 0.0432276576757431 -0.019707240164279938 -0.1898818463087082 0.11859045177698135 0.03448498249053955 -0.20785221457481384 -0.25715571641921997 0.1128324344754219 -0.0686635971069336 0.08554764837026596 -0.03488980978727341 -0.04560236632823944 -0.127702534198761 0.16249725222587585 0.06383001059293747 -0.010631207376718521 0.00834660790860653 0.019934408366680145 0.013248072937130928 0.1975969523191452 -0.0045213052071630955 0.16055622696876526 -0.02569294348359108 -0.02035423181951046 -0.05847468972206116 -0.036268044263124466 0.06701042503118515 -0.24162614345550537 -0.04969501495361328 0.026964562013745308 -0.04207538440823555 0.03327344357967377 0.136703759431839 -0.006667632143944502 -0.07712888717651367 -0.14819538593292236 -0.08413892984390259 0.01776491478085518 0.251059889793396 0.08510781079530716 0.22147047519683838 0.14266882836818695 -0.08206358551979065 0.017805423587560654 -0.08256768435239792 0.014198703691363335
Pepper -0.06748677790164948 -0.08121059834957123 -0.0605599619448185 0.01299619022756815 0.14152099192142487 0.20010994374752045 -0.12283424288034439 -0.1242106482386589 0.053271614015102386 -0.10662446916103363 -0.01294253021478653 -0.0625845193862915 0.029589777812361717 0.03100082464516163 -0.135161355137825 -0.27637794613838196 -0.02559490129351616 -0.01858464814722538 0.04563292860984802 0.24659539759159088 0.043161358684301376 0.0013419470051303506 0.059126369655132294 0.09414755553007126 0.01191593799740076 -0.03602399677038193 -0.06566952168941498 0.07471951097249985 -0.05043010413646698 0.030273061245679855 -0.014117084443569183 0.014769066125154495 0.0903654545545578 -0.042130760848522186 -0.16544121503829956 -0.08090870827436447 0.004982940386980772 -0.21127544343471527 0.16135558485984802 0.09250590950250626 0.08797477185726166 -0.06374778598546982 0.06108085811138153 -0.11611131578683853 -0.05001426860690117 -0.06586384028196335 -0.07200398296117783 0.19637887179851532 0.05475642532110214 -0.08253563195466995 -0.04719139263033867 -0.2160181999206543 0.004393007140606642 0.06780622899532318 0.012424024753272533 0.05936235561966896 0.018428683280944824 0.039679232984781265 -0.03882281854748726 0.04471095651388168 -0.009981273673474789 0.12694041430950165 -0.14860650897026062 0.0766294077038765 0.130080446600914 0.12990564107894897 -0.030641134828329086 0.09169919043779373 0.05445035547018051 0.010657979175448418 -0.10003560036420822 0.023102009668946266 -0.06400676816701889 0.20453724265098572 -0.09214895218610764 -0.07748764753341675 -0.07071679830551147 0.05440178140997887 -0.03864813223481178 0.004559514578431845 0.04563091695308685 0.142778217792511 -0.009584221988916397 -0.056796904653310776 -0.01418969314545393 -0.03512552008032799 0.057737115770578384 -0.0011740050977095962 -0.3160681128501892 0.04627874493598938 0.004261477384716272 0.07814661413431168 0.18894611299037933 -0.012282871641218662 0.17902134358882904 0.08002490550279617 0.04867497459053993 0.14371967315673828 0.065493144094944 0.002318078652024269
beef -0.13249871134757996 0.06396497040987015 -0.008825458586215973 -0.007466824259608984 0.13550344109535217 0.02795940823853016 0.017667321488261223 -0.03540027514100075 -0.08179502934217453 -0.12542523443698883 -0.14640532433986664 0.010744608007371426 0.05394526198506355 0.17895224690437317 -0.15312263369560242 0.08735044300556183 -0.069114089012146 0.02342250756919384 0.08093015849590302 0.2324812263250351 -0.15852037072181702 -0.0036742573138326406 0.09580044448375702 0.04964204877614975 0.01811066083610058 0.13740135729312897 0.05138351395726204 0.1968766450881958 0.012409740127623081 0.040813930332660675 -0.14366686344146729 -0.029855789616703987 -0.008198652416467667 0.19408965110778809 0.1327124536037445 -0.1431950181722641 -0.019469913095235825 0.059838686138391495 0.09282907843589783 0.18866312503814697 -0.027188312262296677 0.012715530581772327 0.18674519658088684 -0.15452708303928375 0.05568761005997658 0.19191934168338776 0.13865457475185394 0.018062978982925415 0.06642220914363861 0.10173820704221725 -0.015715889632701874 0.06531814485788345 -0.009476152248680592 0.04721587896347046 0.18359173834323883 0.08929632604122162 0.04428473487496376 -0.0494726225733757 0.0831586942076683 -0.06471718847751617 -0.12338577210903168 0.04769100248813629 -0.008508379571139812 0.024452289566397667 0.019255636259913445 -0.049297790974378586 0.044156115502119064 0.16450026631355286 0.08574017882347107 -0.09002536535263062 -0.15596818923950195 -0.026990197598934174 -0.10280127078294754 0.05214322730898857 -0.03657751902937889 0.0016935104504227638 0.016087722033262253 0.07360044121742249 -0.1629365235567093 -0.03270767629146576 0.04183154180645943 0.06750445067882538 0.0368429459631443 0.06776632368564606 -0.024872371926903725 -0.10494720935821533 -0.14932915568351746 0.08326146751642227 0.08872566372156143 -0.14702612161636353 0.2061770260334015 0.08449064940214157 0.010744504630565643 -0.14375579357147217 0.12078066170215607 0.059615470468997955 0.08578373491764069 0.03315567970275879 0.13847261667251587 0.04104243963956833
http://www.co-ode.org/ontologies/pizza/pizza.owl#TomatoTopping -0.022422488778829575 -0.05637311562895775 -0.006919011473655701 8.882216643542051E-4 0.0129699083045125 -0.023368239402770996 0.012040704488754272 -0.0031567884143441916 -0.0877276286482811 0.11119312793016434 0.04136670380830765 0.05310845375061035 0.04729318246245384 0.056711602956056595 -0.10144154727458954 -0.036741189658641815 -0.10831014066934586 0.09655732661485672 -0.032039377838373184 0.1457059681415558 -0.07951502501964569 -0.06476586312055588 0.08710138499736786 -0.06760770082473755 0.07523124665021896 -0.0374179370701313 -0.09101436287164688 0.025361288338899612 0.0996251255273819 -0.15728823840618134 -0.05635218322277069 0.0741099938750267 0.13691876828670502 0.018224431201815605 -0.016857296228408813 -0.10484505444765091 -0.033386535942554474 0.31939828395843506 -0.1244935691356659 -0.0353439636528492 -0.21523341536521912 0.00824084971100092 0.040139637887477875 -0.15765735507011414 -0.06361822038888931 0.2145439088344574 -0.08391178399324417 0.08888153731822968 0.05009525641798973 0.0933447778224945 0.018918456509709358 -0.03700503334403038 -0.12556757032871246 0.006924495100975037 0.01878754422068596 -0.008728556334972382 -0.2205394059419632 -0.0018702533561736345 -0.029613368213176727 -0.0041552442125976086 0.21282701194286346 0.11587998270988464 -0.1529548019170761 0.09919203072786331 -0.09916902333498001 0.03421410545706749 -0.10943379998207092 3.7022691685706377E-4 -0.05201193317770958 0.18445925414562225 -0.03527588024735451 0.2180507630109787 -0.08149745315313339 0.1537621170282364 0.1898958832025528 -0.01519735250622034 0.01544890832155943 0.10526831448078156 -0.038855403661727905 -0.042661722749471664 0.03308447450399399 -0.05839282646775246 -0.10188665241003036 -0.05952780321240425 0.023701777681708336 -0.046671297401189804 0.07630384713411331 -0.04820453003048897 -0.05664580687880516 -0.08304601162672043 0.12234705686569214 -0.098470039665699 0.19049736857414246 -0.07519245147705078 0.11004943400621414 0.0658649131655693 0.17103764414787292 -0.12121348083019257 0.1158304437994957 -0.006629561074078083
sauce -0.11927450448274612 0.056720197200775146 -0.0282125286757946 0.022094547748565674 -0.02714746631681919 -0.12341777980327606 0.009245957247912884 -0.05132070928812027 -0.15687797963619232 -0.1684262752532959 -0.08025497943162918 -0.06990706920623779 -0.0319390669465065 0.013367771171033382 -0.016534384340047836 -0.22228896617889404 -0.049592092633247375 0.007978003472089767 -0.07477173209190369 0.06268063932657242 -0.10187143087387085 -0.11567101627588272 0.059278443455696106 0.12883320450782776 -0.05057254433631897 -0.04290919005870819 -0.2328159660100937 0.18254424631595612 0.07714637368917465 0.004657321609556675 -0.19398632645606995 -0.06576886773109436 0.1229831799864769 -0.06425390392541885 -0.09294892847537994 0.034976743161678314 -0.06762854009866714 0.008031737059354782 0.14292311668395996 -0.07678309082984924 -0.0381581112742424 0.011099782772362232 0.011013777926564217 -0.03738870471715927 0.007408549077808857 -0.012967396527528763 0.0541648268699646 0.07191112637519836 0.10714765638113022 -0.12162864208221436 -0.05798288807272911 -0.18246087431907654 -0.060231763869524 -0.014820360578596592 0.20550815761089325 0.0902523398399353 0.1401565670967102 0.0646929144859314 -0.019627653062343597 -0.08764579892158508 -0.06396015733480453 0.004022030159831047 -0.19098663330078125 -0.15388211607933044 -0.004059733357280493 -0.05419257655739784 0.22809775173664093 0.057235751301050186 -0.06565679609775543 0.05751531943678856 0.024469666182994843 -0.14983049035072327 -0.05409526452422142 0.05004274845123291 -0.08981700986623764 0.0632847249507904 -0.23042936623096466 0.12903282046318054 -0.005300106946378946 -0.1164531260728836 -0.20118576288223267 0.013896811753511429 -0.03623444586992264 -0.04475455731153488 0.05901532992720604 0.013669272884726524 -0.02414269745349884 -0.09744010120630264 -0.11038978397846222 0.07869516313076019 -0.0025480790063738823 -0.026486648246645927 0.00623127119615674 0.08305869251489639 0.1797533631324768 0.21945111453533173 -0.07967725396156311 -0.013027451932430267 0.03743642941117287 0.07000614702701569
http://www.co-ode.org/ontologies/pizza/pizza.owl#DeepPanBase -0.07943348586559296 -0.13517999649047852 -0.06134737282991409 0.09539484232664108 0.04216678813099861 0.006017140578478575 -0.07709150016307831 -0.0131185632199049 -0.07456474751234055 -0.05990567430853844 0.05932064726948738 -0.04450991749763489 -0.01577766425907612 0.05068562924861908 -0.06305767595767975 0.016752760857343674 0.0953601598739624 -0.02730588987469673 0.22505874931812286 0.04452366754412651 -0.00820198468863964 0.12642700970172882 0.04324480518698692 -0.1431552916765213 0.06320096552371979 -0.07627791911363602 -0.17410096526145935 -0.012146818451583385 -0.041430745273828506 -0.12852318584918976 -0.06567983329296112 0.10927083343267441 0.049799174070358276 -0.09810810536146164 -0.17451314628124237 0.1256333589553833 0.12696440517902374 0.06147561967372894 0.0690460205078125 0.065048947930336 7.170056051108986E-5 -0.04095211997628212 -0.0883406326174736 -0.12029114365577698 0.07103002816438675 0.10117046535015106 -0.0872047170996666 0.0928870290517807 -0.024183962494134903 0.014004836790263653 -0.08531887829303741 -0.18762359023094177 -0.08842647075653076 0.150720477104187 0.05559985339641571 0.01138259470462799 -0.22248303890228271 -0.10136457532644272 0.11121105402708054 -0.030903654173016548 -0.04599925875663757 0.10064037144184113 -0.19214166700839996 0.041176583617925644 0.11804927885532379 0.010316132567822933 -0.05985430255532265 -0.004898172803223133 0.2313014417886734 0.18093393743038177 -0.046785738319158554 0.03127950429916382 -0.030719997361302376 0.08258002996444702 -0.03916195407509804 -0.023552801460027695 0.11814137548208237 -0.012565904296934605 0.033160969614982605 -0.07832921296358109 0.0108870230615139 -0.05578349158167839 0.05904543399810791 -0.28062546253204346 -0.19359420239925385 -0.08574898540973663 -0.24836000800132751 0.01245593000203371 -0.08140404522418976 0.10095776617527008 0.04343315213918686 -0.016514644026756287 0.050726499408483505 0.18613427877426147 0.1390475481748581 0.026178302243351936 -0.05009033903479576 -0.006068860180675983 -0.0036193171981722116 0.06636185199022293
without 0.035985976457595825 -0.03995781019330025 0.08159534633159637 1.3161204697098583E-4 0.14404667913913727 0.057178400456905365 -0.06323408335447311 -0.01997300237417221 0.02176673151552677 0.04948875308036804 -0.10044831037521362 -0.05762394145131111 -0.05379003286361694 0.08418776094913483 0.13203251361846924 -0.1429058313369751 -0.07538682967424393 -0.04335561767220497 -0.19631563127040863 0.12098751962184906 -0.05594456195831299 0.020718984305858612 0.11133510619401932 0.20643284916877747 -0.05861504375934601 -0.14111588895320892 -0.009331585839390755 -0.10079513490200043 0.021054647862911224 -0.06084485352039337 -0.04692429304122925 0.006414593197405338 -0.03763439506292343 -0.09237127751111984 -0.08783672004938126 0.19779211282730103 0.20932340621948242 0.040781281888484955 0.09403424710035324 0.22462916374206543 0.06435096263885498 0.004322465043514967 -0.11338382959365845 -0.04660746827721596 -0.09141469746828079 -0.10859403014183044 0.13588105142116547 0.028763841837644577 0.01859479397535324 -0.14437977969646454 0.04383120685815811 -0.027447961270809174 0.13296973705291748 -0.08479489386081696 0.07123193889856339 0.07715556770563126 -0.16092075407505035 0.0408644825220108 -0.07641105353832245 -0.037067897617816925 -0.1466015726327896 0.09543019533157349 -0.050088584423065186 0.007179021369665861 0.17365261912345886 -0.011246053501963615 -0.12863141298294067 0.08962184935808182 0.18799398839473724 -0.0952153429389 0.07037121802568436 -0.1217377558350563 -0.1531340479850769 0.08759661018848419 -0.011274980381131172 0.15941430628299713 -0.1007332056760788 0.07450943440198898 -0.03794744983315468 -0.05186018347740173 0.07216116040945053 -0.15914323925971985 -0.01018726546317339 0.010272772051393986 0.11223825812339783 -0.13760614395141602 0.04297079145908356 0.025394238531589508 -0.020377639681100845 -0.17943868041038513 0.06237547844648361 0.09560372680425644 0.1614842563867569 0.007561005651950836 0.1832031011581421 0.028165865689516068 -0.1508987545967102 0.021395476534962654 -0.02049446478486061 -0.02435949817299843
setting -0.0320952944457531 0.07837112247943878 0.04795905947685242 0.16115888953208923 -0.14058050513267517 -0.01743210107088089 -0.13715052604675293 0.058962125331163406 -0.1275457739830017 -0.07085032761096954 0.05670047551393509 -0.029741961508989334 0.008462673984467983 0.05547909811139107 0.07665607333183289 -0.11766419559717178 -0.02476773038506508 -0.09436910599470139 0.02948463335633278 0.1028457060456276 -0.08121947944164276 -0.05868254601955414 0.016935866326093674 -0.04987978935241699 0.03410306200385094 -0.17408554255962372 0.021303784102201462 -0.11043103784322739 -5.9885234804824E-4 0.020832190290093422 0.04261147230863571 -0.06623310595750809 -0.06540403515100479 -0.23958733677864075 -0.10889166593551636 0.044526197016239166 0.13464568555355072 0.07629294693470001 0.1491883546113968 0.2134852260351181 0.050975531339645386 -0.11727850139141083 -0.1392795443534851 -0.07977406680583954 -0.13479159772396088 0.010760662145912647 0.013199547305703163 0.1717505156993866 0.17140237987041473 0.029977669939398766 0.0029261994641274214 -0.0016034140717238188 -0.04931064322590828 0.07761572301387787 0.09192100912332535 -0.004884155001491308 0.012367438524961472 -0.026924224570393562 0.07393960654735565 -0.07595472037792206 -0.12694278359413147 0.2525263726711273 -0.04511742293834686 0.1591261625289917 0.011887225322425365 0.03091566637158394 -0.0924319252371788 0.062265850603580475 0.1465912014245987 -0.06133555248379707 0.11874175816774368 0.08042368292808533 -0.009902609512209892 -0.034183062613010406 6.653123418800533E-4 0.06467749178409576 0.02961699850857258 -0.13428446650505066 0.0300348699092865 -0.1677044928073883 0.023793665692210197 -0.08752914518117905 -0.05703185498714447 0.12946443259716034 -0.1544918268918991 -0.188032329082489 -0.10583695769309998 -0.0941431075334549 0.11546254903078079 0.07887790352106094 -0.07659068703651428 0.09518790990114212 0.2933604121208191 -0.021693168208003044 0.047708120197057724 -0.008458911441266537 0.08035732060670853 -0.07456346601247787 -0.09849055111408234 0.011523042805492878
these 0.011052855290472507 -0.028490571305155754 0.028614996001124382 -0.057083357125520706 0.17443498969078064 0.17361320555210114 -0.03647932782769203 -0.07399335503578186 0.06759887933731079 -0.07654941827058792 0.09107042104005814 -0.14808517694473267 -0.1808300018310547 0.20358090102672577 -0.0461917519569397 0.0647408738732338 0.020668774843215942 -0.05131786689162254 -0.13314206898212433 0.008863740600645542 0.039531607180833817 -0.09555970877408981 0.0680854544043541 0.15446612238883972 -0.01280577015131712 -0.22757473587989807 -0.05998455360531807 -0.09604282677173615 0.014254530891776085 -0.06706897914409637 -0.19034431874752045 0.06334082037210464 -0.04303460195660591 -0.10096003115177155 0.05873103812336922 0.14552880823612213 0.11737245321273804 -0.03930873051285744 0.08363858610391617 0.15977279841899872 0.14956985414028168 -0.083820641040802 -0.015539249405264854 -0.08841311931610107 0.03348634019494057 -0.14974449574947357 -0.03362077474594116 0.04071439802646637 0.1068260595202446 -0.053810879588127136 0.0666162446141243 0.07476343214511871 0.09306330978870392 -0.053087808191776276 0.14373919367790222 0.04030995815992355 -0.16307289898395538 0.03745737671852112 -0.17383800446987152 -0.3081660568714142 -0.18321171402931213 0.17040227353572845 0.0873136967420578 -0.009550930932164192 0.10558336228132248 -0.070533387362957 -0.002191399224102497 0.09868223965167999 0.10616613924503326 0.02559000439941883 -0.13182736933231354 0.01490014884620905 -0.1314116269350052 0.14911924302577972 -0.012802887707948685 -0.1334695816040039 -0.11353360116481781 -0.1350339651107788 -0.0056650061160326 -0.01315675675868988 0.10971609503030777 -0.01847420260310173 -0.037756312638521194 -0.04028411582112312 0.06224972382187843 -0.054687537252902985 -0.013154583051800728 -0.005681181792169809 -0.00665928004309535 -0.024763967841863632 2.4182625929825008E-4 0.053755827248096466 0.06097567826509476 0.032710202038288116 0.08499585837125778 0.0037578109186142683 -0.12779764831066132 0.04623160511255264 -0.07732616364955902 -0.009136275388300419
Mild 0.08564310520887375 -0.07256520539522171 -0.0015154415741562843 0.0470893494784832 0.10224359482526779 -0.0381305105984211 0.06223010644316673 -0.15262074768543243 -0.010367434471845627 -0.07364406436681747 0.006425210740417242 0.01357247680425644 -0.00458676740527153 0.030157582834362984 -0.14629536867141724 -0.04761502519249916 0.03063051402568817 0.01488487608730793 -0.11108408868312836 0.13249348104000092 0.1275414377450943 0.039468783885240555 6.83468533679843E-4 0.05737492814660072 -0.004561776295304298 -0.024943159893155098 -0.1054549515247345 -0.008107532747089863 -0.0844363123178482 -0.09418268501758575 -0.035925865173339844 -0.005901816766709089 -0.02926361933350563 -0.22126108407974243 -0.05817554146051407 -0.04461344704031944 0.06861715018749237 0.12316183000802994 -0.05710870400071144 0.14823578298091888 0.07058937847614288 -0.037086378782987595 -0.1410495489835739 -0.04740608483552933 -0.0934346616268158 0.06869401037693024 -0.09882000833749771 0.21033255755901337 -0.09607851505279541 -0.1604456603527069 0.19374866783618927 -0.09577750414609909 -0.0445697121322155 0.09873947501182556 0.05901053547859192 -0.14402969181537628 -0.20813752710819244 0.029050160199403763 -0.0883050262928009 -0.06731677800416946 -0.04029003903269768 0.12215585261583328 -0.17500825226306915 -0.08602577447891235 0.05285358428955078 -0.03149540722370148 -0.1908879429101944 0.10448919236660004 0.11264955997467041 0.04240826517343521 -0.06540722399950027 0.13966716825962067 -0.09644051641225815 0.278037428855896 0.01909772865474224 -0.0050447662360966206 -0.13541851937770844 0.22764672338962555 -0.031856805086135864 -0.018026797100901604 -0.07675383239984512 0.09244968742132187 0.0010914300801232457 -0.1141246110200882 -0.022996827960014343 -0.003419306129217148 -0.03390512615442276 -0.025770269334316254 -0.08597159385681152 -0.1502121388912201 0.10943504422903061 0.11390255391597748 0.100815549492836 -0.108344167470932 0.173745796084404 -0.0318610705435276 -6.248451536521316E-4 0.11725342273712158 0.0979795902967453 0.019104646518826485
OneOf: 0.059615664184093475 0.08114086836576462 0.027980251237750053 0.0644540935754776 0.06354730576276779 0.039518386125564575 -0.13073687255382538 -0.094845250248909 -0.10843367129564285 0.05150007829070091 0.06748159974813461 -0.09982644021511078 -0.09800247102975845 0.03610711917281151 -0.141782745718956 0.07822033762931824 -0.0018472251249477267 -0.08487708121538162 -0.1042451411485672 0.019704649224877357 0.0974985733628273 -0.03410917520523071 0.03112255223095417 0.011943676508963108 0.07031715661287308 -0.003006153041496873 -0.04093734920024872 -0.23691228032112122 0.048750054091215134 -0.13080060482025146 -0.15721000730991364 -0.04428832232952118 -0.0392763689160347 -0.05835886299610138 -2.2334647655952722E-4 0.14170090854167938 0.016844168305397034 -0.09380432963371277 0.0949358195066452 0.2424784153699875 0.1068977490067482 -0.0492599755525589 -0.08728500455617905 -0.004616650752723217 -0.04643469303846359 0.09708386659622192 -0.2188778519630432 0.17733892798423767 -0.1223360225558281 -0.08381857722997665 -0.05926463007926941 -0.16312822699546814 0.05105360224843025 -0.011833427473902702 0.11544711887836456 0.016076069325208664 -0.11705964058637619 0.0526251383125782 0.07462894916534424 -0.03485562279820442 -0.17679671943187714 0.06332133710384369 0.01672416366636753 0.052891865372657776 0.12712354958057404 -0.07326140254735947 -0.15844722092151642 0.15688779950141907 0.0067176250740885735 -0.07497337460517883 -0.1217196062207222 0.12019621580839157 -0.17198994755744934 0.16904093325138092 0.13108183443546295 0.04683792591094971 -0.0821160301566124 -0.0724969357252121 -0.07689861208200455 -0.10578901320695877 0.20469258725643158 0.006103558465838432 -0.009803169406950474 -0.1530122458934784 0.0030049688648432493 -0.13423196971416473 -0.03381358087062836 -0.041856106370687485 0.09285547584295273 -0.09909943491220474 0.14050352573394775 0.028421150520443916 0.14043670892715454 -0.013758120127022266 0.1727069765329361 0.05676892027258873 0.07134861499071121 0.07303891330957413 0.045383892953395844 -4.4733347021974623E-4
caprina 0.12145588546991348 -0.03222105652093887 0.06352443993091583 -0.07228721678256989 0.02692246250808239 -0.012075576931238174 0.05272812396287918 0.06581316888332367 0.07333696633577347 -0.09525872766971588 -0.02356882579624653 -0.04021763056516647 -0.0684008002281189 0.10834252834320068 -0.14400514960289001 0.1459595412015915 -0.17199274897575378 0.08664121478796005 -0.064717136323452 -0.06082853674888611 0.09379590302705765 -0.10439508408308029 0.16336017847061157 0.040409307926893234 -0.09976127743721008 0.03266337513923645 -0.16219280660152435 0.2714466452598572 -0.13366101682186127 -0.15309004485607147 0.0344490148127079 -0.030520252883434296 -0.035223886370658875 0.07829885929822922 0.007528641261160374 -0.038844287395477295 0.08143001794815063 0.08206003904342651 0.18722237646579742 0.024829169735312462 0.1102171242237091 -0.03626030683517456 -0.10345718264579773 -0.15709815919399261 -0.04365050047636032 0.13672246038913727 0.16290564835071564 -0.04982619732618332 -0.03346453979611397 0.07285184413194656 0.0019385553896427155 -1.1486284347483888E-4 -0.0840194821357727 -0.07763338088989258 0.16678795218467712 -0.051113810390233994 0.07337205111980438 0.21087267994880676 -0.06884478032588959 0.2060648500919342 0.006923574022948742 0.07607922703027725 -0.04972467198967934 0.14775966107845306 0.08493740856647491 0.07636379450559616 0.11617681384086609 -0.24810999631881714 0.054148752242326736 -0.01762903854250908 0.04393056780099869 -0.0677286833524704 -0.006293571554124355 -0.020152898505330086 0.22447854280471802 0.08422654122114182 -0.07186348736286163 -0.01824861206114292 0.0368511900305748 -0.0979326069355011 -0.04502217099070549 -0.06835488229990005 -0.055949386209249496 0.0023212176747620106 -0.03365818411111832 -0.12922458350658417 0.018495909869670868 0.20079870522022247 0.021187571808695793 0.04946881905198097 -0.0751529335975647 -0.0030300559010356665 0.05538444593548775 -0.06191420555114746 -0.019058866426348686 -0.18236298859119415 0.05991876497864723 -0.009879933670163155 0.04140284284949303 0.12586171925067902
http://www.semanticweb.org/owl2vec#typeOf 0.0523812361061573 0.08955738693475723 -0.05886491760611534 0.005819159094244242 0.05148325115442276 -0.19453267753124237 -0.0019857226870954037 0.1060565859079361 -0.0031580831855535507 0.1251124143600464 -0.03440066799521446 -0.10441429167985916 -0.07817688584327698 0.10686641931533813 -0.09079665690660477 -0.00890838447958231 -0.027992714196443558 -0.05432246997952461 -0.20716969668865204 0.040805600583553314 0.06512794643640518 -0.012199257500469685 -0.021216070279479027 0.10484045743942261 0.03304366394877434 -0.04397131875157356 0.025037260726094246 -0.25941547751426697 -0.014695382677018642 0.002895255805924535 -0.1460816115140915 -0.20391854643821716 -0.10330864042043686 -0.10511529445648193 0.012171274982392788 0.13271564245224 0.009704613126814365 0.14953409135341644 0.05922283977270126 0.21354609727859497 0.02348678559064865 0.07551228255033493 0.007398736197501421 0.028232160955667496 -0.05067034810781479 0.16530176997184753 -0.03359634056687355 0.05727945640683174 -0.06109843775629997 -0.07399297505617142 0.07892253249883652 -0.2044977992773056 -0.024671578779816628 -0.0404636412858963 0.019291169941425323 -0.01889198273420334 -0.04592084512114525 0.01624862290918827 -0.1617434322834015 -0.05299488082528114 -0.1056019514799118 0.17116372287273407 -0.061129506677389145 0.094350665807724 0.002319398568943143 -0.07396937906742096 -0.06631741672754288 0.18777337670326233 0.11125420778989792 -0.09689577668905258 -0.055709581822156906 -0.0033812415786087513 -0.07896986603736877 0.03679869323968887 0.24383872747421265 -0.1710846871137619 -0.07924527674913406 -0.048347245901823044 0.10477226227521896 -0.14068175852298737 0.0402323380112648 0.12149500101804733 -0.16004890203475952 -0.0512792244553566 0.12265700846910477 -0.1489723175764084 -0.1315826028585434 0.1337154358625412 0.09854606539011002 -0.06805720180273056 0.09723252803087234 0.09308142215013504 0.11805156618356705 -0.06799673289060593 0.034979309886693954 0.07187700271606445 0.028008896857500076 0.04281988739967346 -0.017898738384246826 -0.043598346412181854
would 0.0705840140581131 -0.006327023729681969 0.1980527937412262 0.1436518430709839 0.07861461490392685 -0.004301848355680704 -0.1909487396478653 0.0022285599261522293 0.06289168447256088 -0.02035263180732727 -0.07556455582380295 -0.23054544627666473 -0.11635347455739975 0.22338080406188965 0.010768827982246876 -0.052123066037893295 0.06735578924417496 -0.10308802127838135 -0.10808897763490677 -0.014023920521140099 0.0023341437336057425 -0.1698920875787735 0.07152397185564041 0.023034261539578438 0.005443189293146133 -0.18317361176013947 0.04956671595573425 -0.03239048644900322 -0.07409488409757614 -0.09811413288116455 0.008681492879986763 -0.034096259623765945 0.13414260745048523 -0.0920516699552536 -0.08295337855815887 0.08347812294960022 0.02405298873782158 -0.03314555808901787 0.07207391411066055 0.1532106101512909 0.2651684880256653 0.058155711740255356 -0.09799252450466156 0.1531004011631012 -0.11881114542484283 -0.021778076887130737 -0.009794933721423149 0.09290779381990433 0.010653022676706314 -0.14309480786323547 0.05084504559636116 -0.07316260784864426 0.025904204696416855 0.019869577139616013 0.14528612792491913 -0.012668580748140812 -0.10527186095714569 -0.12692886590957642 -0.03158913180232048 -0.10440794378519058 0.05978178605437279 0.16726717352867126 -0.052142538130283356 0.10478536039590836 0.16273218393325806 -0.0972013846039772 -0.07398433983325958 0.10938932746648788 0.13186173141002655 -0.04630223661661148 0.020994409918785095 -0.013501495122909546 -0.061852503567934036 0.005871150642633438 0.010866665281355381 0.03948993608355522 -0.026692815124988556 -0.0600244402885437 -0.17051973938941956 -0.0854191929101944 0.16044031083583832 -0.09027121961116791 0.16083331406116486 1.4452089089900255E-4 0.05734175071120262 -0.19459913671016693 -0.12427461892366409 -0.09683320671319962 0.018219826743006706 -0.14052928984165192 0.08003567904233932 0.10354939103126526 -0.0010901095811277628 -0.0035666159819811583 0.15135075151920319 -0.003605997422710061 0.06736161559820175 -0.022403204813599586 -0.03684224560856819 -8.467431325698271E-5
disjoint 0.03029964491724968 -0.039492860436439514 0.18149372935295105 0.14255541563034058 -0.03419291973114014 0.05924571678042412 -0.0726805254817009 -0.07714737206697464 0.2612488865852356 -0.04251522198319435 -0.058274008333683014 -0.16448503732681274 -0.14812274277210236 0.11388904601335526 0.02906927838921547 0.15475639700889587 0.022973429411649704 -0.07537984848022461 -0.016970442607998848 -0.07417617738246918 0.06336160004138947 -0.051454462110996246 0.05230230465531349 0.12557068467140198 0.04961938410997391 -0.15467889606952667 -0.05719819292426109 -0.14165237545967102 0.058708786964416504 -0.2467920035123825 0.025508113205432892 -0.12714551389217377 0.1114700585603714 -0.1908797174692154 -0.04624635726213455 0.2120576649904251 -0.0030433149076998234 -0.15760821104049683 0.06484370678663254 0.12790122628211975 0.08575514703989029 0.0038991086184978485 -0.08615677803754807 0.09373220056295395 -0.20574411749839783 0.0024721508380025625 -0.07865551114082336 -0.07675278931856155 0.13025128841400146 -0.01949281245470047 0.027605891227722168 -0.097615085542202 -0.01884790137410164 0.047142643481492996 0.16601680219173431 0.04669893532991409 -0.0690939873456955 -0.014378797262907028 0.008773712441325188 -0.014599289745092392 -0.08453373610973358 0.0726161077618599 -0.04756633937358856 0.08770658075809479 0.17802894115447998 0.08725599944591522 0.055300869047641754 0.00591085571795702 0.12918908894062042 -0.06225128471851349 0.0367782898247242 0.03775891289114952 -0.07777207344770432 0.14512833952903748 0.0672079548239708 0.10407711565494537 -0.03680632635951042 0.04139579087495804 -0.10592293739318848 -0.1040576845407486 0.11175546050071716 -0.10475795716047287 -0.015459748916327953 -0.13550341129302979 -0.0779963955283165 -0.09030087292194366 0.08676539361476898 0.017945505678653717 -0.0023456127382814884 -0.14926721155643463 0.015020618215203285 -0.033117279410362244 0.14405661821365356 -0.01631137728691101 0.03178427740931511 -0.062309328466653824 0.024940278381109238 0.014047540724277496 -0.18941843509674072 -0.09699060022830963
Capricciosa 0.09351058304309845 -0.015943538397550583 0.08929353952407837 -0.02541569620370865 0.1331329196691513 0.08168413490056992 0.1325012892484665 -0.14387597143650055 0.057920899242162704 0.008827188052237034 -0.11144724488258362 -0.16401328146457672 0.04584615305066109 0.13037055730819702 0.005648426711559296 -0.05842582881450653 -0.07830212265253067 0.009969553910195827 -0.1471012532711029 -0.11204788833856583 0.07998423278331757 -0.04620084539055824 0.19924117624759674 0.004568713251501322 0.10876728594303131 0.06087130308151245 -0.05980527028441429 0.007327564060688019 0.034613605588674545 -0.1862737536430359 -0.09177926927804947 0.19136087596416473 0.018331769853830338 0.024617306888103485 -0.06175142899155617 -0.08601631969213486 -0.09816733002662659 -0.1473187804222107 -0.0307772159576416 0.0341092050075531 0.10739513486623764 -0.06140068918466568 0.18515567481517792 -0.11409886181354523 -0.09384351223707199 0.09222573786973953 -0.1549626737833023 0.07447093725204468 0.07020778208971024 -0.025335591286420822 -0.13222689926624298 -0.05096435546875 -0.10781439393758774 0.043984584510326385 0.013833156786859035 0.10149766504764557 -0.12466726452112198 0.08668012917041779 -0.0342869870364666 0.019892727956175804 0.036291126161813736 -0.06571877747774124 -0.007219021208584309 -0.04298160970211029 0.04560983553528786 8.903396519599482E-5 -0.10212916135787964 -0.06049155816435814 0.0335097536444664 0.20464156568050385 -0.03300797939300537 0.01951555162668228 -0.08160468935966492 0.3324049711227417 -0.02181156910955906 -1.8423829169478267E-4 0.03242716193199158 0.08873694390058517 -0.034300677478313446 0.009106664918363094 0.04886024072766304 -0.006945386994630098 0.19489187002182007 -0.23884549736976624 0.01909472793340683 -0.19784937798976898 0.029094327241182327 -0.03823890537023544 -0.04763553664088249 -0.04957597702741623 0.13563555479049683 0.03694672882556915 0.13800287246704102 -0.06516905874013901 0.1500750631093979 0.04072434827685356 0.09329135715961456 0.07345658540725708 0.0679866150021553 -0.10141333937644958
property, 0.05807308852672577 -0.014437710866332054 0.0385279506444931 0.019029874354600906 -0.01552242785692215 0.03590535745024681 -0.099718376994133 -0.06499342620372772 0.0675748884677887 0.12458361685276031 -0.019244378432631493 -0.14925739169120789 -0.11606228351593018 0.08900532126426697 0.005437423940747976 -0.011570614762604237 -0.022625833749771118 -0.06951691210269928 -0.051226913928985596 0.019915083423256874 0.06882984191179276 -0.004837428219616413 0.17212021350860596 -0.005796441342681646 -0.005653430707752705 -0.12199384719133377 0.08695372939109802 0.005385278258472681 -0.12472281605005264 -0.030306179076433182 0.07325773686170578 0.03919589892029762 -0.03774160146713257 -0.05065998435020447 -0.06263371556997299 0.0802638903260231 0.22231528162956238 -0.11494836211204529 0.06610997766256332 0.12087908387184143 -0.008280073292553425 0.04037518799304962 -0.1138225570321083 -0.023187149316072464 0.05515889450907707 -0.0473705492913723 -0.026003902778029442 0.1836564987897873 0.11819471418857574 -0.13589799404144287 0.03323660045862198 -0.03101610764861107 -0.08752335608005524 -0.16294966638088226 0.12208347022533417 0.05002877488732338 -0.04688432067632675 0.077731654047966 -0.006662623956799507 -0.24946320056915283 -0.13700051605701447 0.11324993520975113 -0.05330362543463707 0.029175754636526108 0.02046154998242855 0.10492097586393356 -0.02603900246322155 0.04088936746120453 0.2791925370693207 0.02678593620657921 -0.015255305916070938 0.049239084124565125 -0.055212341248989105 0.06587264686822891 0.03896058723330498 0.18124578893184662 0.04178434610366821 -0.11668496578931808 -0.10727252811193466 -0.07665789127349854 0.12133502215147018 -0.17509041726589203 -0.025118062272667885 -0.009309030137956142 0.04770224168896675 -0.25970765948295593 -0.16479866206645966 0.10013531893491745 0.15969236195087433 -0.04013613611459732 0.10247336328029633 0.06676942855119705 0.2080392688512802 0.1541440486907959 0.18499073386192322 0.011511201970279217 -0.09262704849243164 0.08070238679647446 -0.019578469917178154 0.03973178565502167
interestingpizza 0.04331888630986214 -0.08394137769937515 0.09785119444131851 0.052857182919979095 0.15239644050598145 -0.027545038610696793 -0.0874924585223198 -0.023146361112594604 -0.11929065734148026 0.029605109244585037 0.10751817375421524 0.06657575070858002 -0.030743125826120377 0.17756012082099915 -0.2472665160894394 0.16879555583000183 -0.05866264924407005 -0.07370820641517639 -0.1382359266281128 -0.08178163319826126 0.028344791382551193 -2.4083205789793283E-4 -0.007643976714462042 0.03510046377778053 0.10408211499452591 -0.1887037456035614 -0.12886741757392883 -0.08104486018419266 -0.0339469388127327 -0.16906772553920746 -0.10445364564657211 0.020889654755592346 0.12959395349025726 -0.00564131373539567 -0.03643184155225754 0.05694333836436272 0.08074233680963516 -0.02281542867422104 0.2094791829586029 0.16939197480678558 -0.002979850862175226 0.054601430892944336 0.06600657850503922 -0.10105624049901962 0.07254194468259811 0.12480168789625168 -0.11457128077745438 -0.03407623991370201 -0.0762047991156578 0.0028892862610518932 -0.022063273936510086 -0.12279701232910156 0.017236584797501564 0.027167074382305145 0.1620664745569229 0.08194810897111893 -0.11900622397661209 0.10556910187005997 0.15497645735740662 -0.006766580045223236 -0.23163503408432007 0.05789096653461456 0.0906120166182518 -0.1101134717464447 -0.07660077512264252 0.01970532163977623 0.0854835957288742 0.042413149029016495 0.07154572755098343 -0.04245010018348694 0.09122493118047714 -0.03904261440038681 0.021275099366903305 0.0517682209610939 0.06445127725601196 0.014245565049350262 -0.02470669522881508 0.05307502672076225 0.02270246483385563 0.11029952764511108 -0.08932119607925415 0.07866573333740234 0.04636900871992111 -0.11388534307479858 0.05538608506321907 0.058081306517124176 -0.2262890338897705 0.1370936930179596 0.03132130578160286 0.16542278230190277 -0.1627640277147293 -0.06204923987388611 -0.11943065375089645 0.025578713044524193 0.13558711111545563 -0.12528112530708313 0.02910405769944191 -0.13951118290424347 0.10293038934469223 0.10005291551351547
http://www.co-ode.org/ontologies/pizza/pizza.owl#PolloAdAstra 0.13971193134784698 0.2143974006175995 0.13829122483730316 -0.08894374221563339 -0.07557307183742523 -0.049111802130937576 0.006209359038621187 0.07673968374729156 -0.0446040965616703 -0.0011101887794211507 -0.1022646501660347 0.05823470279574394 0.018622208386659622 0.17989306151866913 0.06813962012529373 0.1461220383644104 -0.06416263431310654 0.08346332609653473 -0.028002941980957985 0.03409261256456375 0.022955279797315598 0.08682771027088165 0.04110337048768997 -0.06009163334965706 0.11750560253858566 0.06890209764242172 -0.14867785573005676 0.10151082277297974 -0.04951699823141098 0.008042361587285995 0.10089226067066193 7.353590917773545E-4 0.02753572165966034 -0.0730610117316246 -0.029393404722213745 -0.08659525215625763 0.032934948801994324 -0.0856030136346817 -0.053782928735017776 0.13537830114364624 0.07708695530891418 -0.06985786557197571 -0.06455060094594955 -0.019338887184858322 -0.18802796304225922 0.1662779301404953 -0.07681567966938019 0.07679250836372375 0.18100833892822266 0.03767804801464081 0.07449853420257568 -0.13558949530124664 -0.026784086599946022 0.23919923603534698 0.09291061758995056 -0.16299624741077423 0.0875292718410492 0.0849187970161438 -0.06358260661363602 0.07240854203701019 -0.199358731508255 0.15703649818897247 -0.1788661777973175 0.05957628786563873 -0.007854454219341278 -0.06671483814716339 -0.23034973442554474 -0.01843072474002838 0.04515719786286354 0.006451976485550404 -0.1574786752462387 -0.012115166522562504 0.05327504128217697 0.15498529374599457 0.04855238273739815 0.084388367831707 0.044441524893045425 0.0733843743801117 -0.022810518741607666 0.09044169634580612 0.02656177431344986 -0.14375433325767517 -0.0037249457091093063 -0.09732579439878464 -0.20696400105953217 0.042717188596725464 0.1043141558766365 -0.09275113046169281 -0.08012004941701889 0.05790376290678978 0.05968616157770157 0.08229056745767593 0.15149007737636566 0.03297148272395134 -0.08651288598775864 -0.01386222057044506 0.08074888586997986 -0.06994904577732086 -0.015865657478570938 0.1529490053653717
because -0.023395437747240067 -0.06744550913572311 -0.03396448493003845 -0.09871316701173782 -0.01987793669104576 0.001416331040672958 -0.14966188371181488 -0.016983143985271454 0.19955408573150635 -0.044408172369003296 -0.055312369018793106 -0.0556550994515419 -0.1053643524646759 0.25344717502593994 0.0697697177529335 -0.046569131314754486 -0.09089788049459457 0.008205731399357319 -0.055238209664821625 -0.04661770164966583 0.0379764661192894 -0.1689486801624298 0.0829097107052803 0.06079090014100075 0.03944285213947296 -0.16334012150764465 -0.15716256201267242 -0.15700127184391022 0.06457141786813736 -0.11070806533098221 -0.06992216408252716 -0.1288800984621048 0.1769898384809494 -0.08965620398521423 -0.08427753299474716 0.12501978874206543 -1.5093439287738875E-5 -0.020388443022966385 0.05955331400036812 0.25826600193977356 0.1160983070731163 0.0339076854288578 -0.021741047501564026 8.477781084366143E-4 -0.018484652042388916 -0.2030545175075531 0.030785836279392242 -0.12086530029773712 0.15373799204826355 0.08213897049427032 0.0292491614818573 0.011362867429852486 0.0028819746803492308 -0.06571401655673981 0.04022643715143204 0.12534667551517487 -0.04769914969801903 -0.04248868674039841 -0.008556468412280083 -0.03820980712771416 -0.08880889415740967 0.12571702897548676 -0.18983064591884613 -0.015906089916825294 0.06991689652204514 -0.0901767909526825 -0.04551030322909355 0.027237839996814728 0.0753503367304802 -0.07542157173156738 0.04723838344216347 -0.05042704939842224 -0.10152477025985718 4.526198608800769E-4 0.04633592814207077 0.12012883275747299 -0.12324698269367218 -0.06537217646837234 -0.12152818590402603 -0.03293939307332039 -0.027899514883756638 -0.15460191667079926 -0.08252934366464615 -0.06452847272157669 -0.04960865154862404 -0.22982080280780792 -0.035452574491500854 0.024955183267593384 0.10684549063444138 0.006582946982234716 -0.0589311346411705 -0.022111525759100914 0.1787637621164322 -0.040472615510225296 0.13266047835350037 0.055956337600946426 -0.1567332148551941 -0.04524356499314308 -0.22615258395671844 -0.05363074690103531
InterestingPizza 0.042768798768520355 -0.05253801494836807 0.01946139708161354 0.05896906182169914 0.06047910824418068 0.04380929470062256 -0.03183051198720932 -0.07181200385093689 -0.11567752808332443 0.026416821405291557 -0.006321694236248732 -0.0993199422955513 -0.004934544209390879 0.061811041086912155 -0.2013835459947586 -0.07218653708696365 -0.0473940409719944 0.02964167483150959 -0.08736567199230194 0.035849615931510925 0.12390811741352081 0.037031497806310654 0.031045570969581604 0.012910531833767891 0.10212671756744385 0.0324297770857811 0.0015197353204712272 -0.0856577530503273 0.03660808131098747 -0.20535089075565338 -0.1178072839975357 0.05722855031490326 0.011682365089654922 -0.23550179600715637 -0.0945575088262558 0.12357781082391739 0.05853023752570152 0.11478080600500107 0.06133941560983658 0.24879929423332214 0.06346693634986877 0.1618371158838272 -0.033033814281225204 -0.1462867259979248 -0.026508906856179237 -0.012853024527430534 -0.13213172554969788 0.24857281148433685 -0.028682053089141846 -0.03358537703752518 0.0026778047904372215 -0.10128449648618698 -0.07114897668361664 -0.06695783138275146 0.11478639394044876 -0.061168354004621506 -0.2060365527868271 0.01392087247222662 0.0013926115352660418 -0.057772159576416016 -0.06259877234697342 0.14974895119667053 0.003947920631617308 0.16336791217327118 0.01615469716489315 -0.08773564547300339 -0.054085806012153625 0.06927821040153503 0.13472361862659454 -0.06439579278230667 0.04810069128870964 0.12657758593559265 -0.10915068536996841 0.29212483763694763 0.11217872053384781 -0.01806548796594143 -0.06380685418844223 0.10426778346300125 0.06639155745506287 0.08710512518882751 0.06124885380268097 -0.05752292275428772 -0.019932705909013748 -0.12060336768627167 0.01840079016983509 -0.11900094896554947 0.015540815889835358 -0.025890538468956947 -0.09798082709312439 -0.08279746025800705 0.0856020599603653 0.04132257029414177 0.1288110911846161 0.023708291351795197 0.23363909125328064 0.09654907137155533 -0.05872661620378494 0.0834755077958107 0.08784748613834381 0.09327893704175949
http://www.co-ode.org/ontologies/pizza/pizza.owl#SauceTopping -0.16946196556091309 0.12841540575027466 0.052432987838983536 0.037360161542892456 -0.0865803137421608 0.014570552855730057 0.17814572155475616 -0.02021530084311962 -0.07298534363508224 -0.09827693551778793 -0.09957463294267654 -0.08270133286714554 0.038136545568704605 0.14300869405269623 -0.15993452072143555 -0.21724621951580048 0.006418917793780565 0.06774000078439713 0.01511684525758028 0.009314566850662231 0.028601275756955147 0.07594891637563705 0.03818859905004501 -0.0752149298787117 0.06468893587589264 -0.1706228256225586 -0.02865760587155819 0.24040699005126953 -0.011729643680155277 -0.10147000104188919 -0.0746094137430191 -0.08575917035341263 0.23115086555480957 -0.07785608619451523 0.015023138374090195 0.06615140289068222 0.11015602201223373 0.13348758220672607 0.07433565706014633 0.08926646411418915 0.008872603066265583 0.19217103719711304 -0.16703960299491882 -0.2529495060443878 0.011288775131106377 -0.02352992631494999 -0.11902012676000595 0.09691786766052246 0.07989881187677383 0.01814577542245388 -0.03997179865837097 -0.0453747883439064 -0.04247530177235603 0.10953889787197113 0.0016695567173883319 0.14855791628360748 -0.022204475477337837 0.10601887106895447 -0.011899568140506744 -0.12136974185705185 -0.10613143444061279 -0.025539804250001907 -0.11071110516786575 -0.016002466902136803 -0.07434237003326416 -0.11139889806509018 -0.017438987269997597 0.16207942366600037 -0.057175979018211365 0.00818816851824522 -0.10736418515443802 -0.07656814903020859 -0.03082197904586792 0.11692871898412704 0.029269112274050713 -0.04846714809536934 -0.14654645323753357 0.02322891727089882 0.0035498912911862135 0.015562320128083229 -0.08029356598854065 0.016825437545776367 -0.020492497831583023 -0.05440395325422287 -0.04325603321194649 0.05573703348636627 -0.038845643401145935 -0.02243013121187687 0.1747412383556366 0.11426705121994019 -0.09133214503526688 0.09376943856477737 0.16751015186309814 0.03328700736165047 0.20554803311824799 0.0023132942151278257 -0.07980874925851822 0.03060421720147133 0.166297048330307 0.05439596250653267
spicytopping -0.05238586664199829 0.17972877621650696 0.02357330732047558 0.10881335288286209 -0.07192760705947876 -0.03059539385139942 0.05625201016664505 0.002700424985960126 -0.04406006634235382 9.834712836891413E-4 0.07556004077196121 0.13982026278972626 -0.04259342700242996 0.03055567666888237 -0.10575908422470093 0.12251809239387512 -0.008241357281804085 -0.14906702935695648 -0.037512365728616714 0.13420060276985168 0.05840539187192917 -0.09630818665027618 -0.06317730247974396 0.08059418201446533 0.013019366189837456 -0.16405339539051056 -0.04613876715302467 0.10677885264158249 0.13118603825569153 -0.04863779619336128 0.06669653207063675 0.04607979953289032 0.20711269974708557 -0.042426496744155884 -0.04139023646712303 0.11684037744998932 0.027011821046471596 0.13098932802677155 0.09613855928182602 0.18764440715312958 0.05860964581370354 0.016736093908548355 -0.04649729281663895 -0.16047662496566772 0.23438529670238495 0.15223197638988495 0.06378573179244995 -0.04222685843706131 -0.16965122520923615 0.029880952090024948 0.1590118259191513 0.11902794986963272 0.035283274948596954 0.07789936661720276 0.13787485659122467 0.11215592175722122 0.09545836597681046 0.07416524738073349 0.08409301936626434 0.005532299634069204 -0.1611243188381195 0.11173252761363983 0.11002463847398758 0.028415322303771973 -0.15091058611869812 0.03995572030544281 0.02716362103819847 0.15929825603961945 -0.0350160151720047 -0.16334420442581177 -0.13195107877254486 0.014156145974993706 -0.08315470814704895 0.1007625162601471 0.08508773893117905 0.19104523956775665 -0.006860810332000256 0.06769128888845444 -0.044540584087371826 -0.07481737434864044 -0.10735271871089935 -0.18422167003154755 -0.11107476055622101 0.09608756750822067 -0.07632925361394882 0.039223141968250275 -0.15755276381969452 0.1306639164686203 -0.04857168346643448 0.003904197597876191 0.09381819516420364 -0.015309682115912437 0.12291543930768967 -0.016009800136089325 -0.0052179754711687565 -0.05162340775132179 -0.05241833254694939 -0.030888216570019722 0.013410169631242752 0.13316795229911804
Reine 0.12456372380256653 -0.018620271235704422 0.10657710582017899 -0.07074329257011414 0.07889343053102493 0.1189814880490303 -0.06083771213889122 0.05395786091685295 0.09896524250507355 -0.037484824657440186 -0.051514726132154465 -0.006285787560045719 0.004050346557050943 0.15016092360019684 -0.07760173082351685 -0.10565803945064545 -0.036708928644657135 0.08503720164299011 -0.2063906192779541 -0.030786754563450813 -0.007621044758707285 -0.01997513324022293 0.25043556094169617 -0.030718667432665825 0.07228171825408936 -0.119282066822052 -0.08383046090602875 -0.14129069447517395 0.09554049372673035 -0.09347463399171829 -0.04369480162858963 0.09757155925035477 -0.03089330345392227 -0.11855297535657883 -0.10888774693012238 0.062374297529459 -0.11176919937133789 -0.030745044350624084 0.137789785861969 0.15676555037498474 0.03878367692232132 -0.06683432310819626 0.03142644092440605 -0.03456389531493187 -0.20564019680023193 0.13517479598522186 -0.08858778327703476 0.0792161077260971 0.08787224441766739 -0.1991872638463974 -0.029984619468450546 -0.13559730350971222 -0.016088487580418587 -0.015909714624285698 -3.093326813541353E-4 0.20373426377773285 -0.1873895525932312 0.031259987503290176 -0.08245137333869934 0.06150013208389282 0.12823215126991272 -0.005950747057795525 0.023119572550058365 0.0876065343618393 -0.019268736243247986 0.016656748950481415 -0.08078663796186447 0.03896640986204147 -0.011391159147024155 0.11045923829078674 0.023543259128928185 0.04298733174800873 -0.028622716665267944 0.3406454622745514 0.06130124628543854 -0.11838676780462265 0.06184021756052971 -0.018782522529363632 0.022082414478063583 0.056617774069309235 0.0896296501159668 -0.05832826718688011 0.04809033125638962 -0.09206830710172653 0.00991787202656269 -0.07635727524757385 0.12309350073337555 -0.03043404407799244 -0.07853863388299942 -0.10966471582651138 0.1339123696088791 0.028316613286733627 0.2296353280544281 0.03345240280032158 0.17230455577373505 0.05296574905514717 0.08873553574085236 0.002310131210833788 -0.02950070984661579 -0.04812687262892723
Thing 0.07014687359333038 0.005949719808995724 0.020153790712356567 -0.016211995854973793 0.02848384901881218 -0.013399776071310043 -0.1056722104549408 -0.1647213101387024 0.03116672672331333 0.0011816835030913353 0.004639362916350365 0.004846666939556599 -0.005056310910731554 0.15122857689857483 -0.08987193554639816 -0.07449471205472946 -0.00977465882897377 -0.005714405328035355 -0.15343579649925232 -0.003531061578541994 0.1265116035938263 0.04055553674697876 0.056643977761268616 0.05518835410475731 0.04356897249817848 0.0014383583329617977 -0.13243064284324646 -0.13147316873073578 0.05868511646986008 -0.12446562200784683 -0.07626496255397797 0.009538165293633938 -0.04674014821648598 -0.10138563811779022 -0.17590278387069702 0.16982679069042206 0.10950402170419693 -0.08849271386861801 0.0708722323179245 0.25742456316947937 0.11984983086585999 -0.05352872982621193 -0.11538287997245789 -0.07695932686328888 -0.17938295006752014 0.05397992953658104 -0.17291854321956635 0.19517068564891815 -0.09043154120445251 -0.08316925913095474 0.02462655119597912 -0.1861010640859604 -0.026801807805895805 0.05801492929458618 0.1303139626979828 0.09281525760889053 -0.25540250539779663 0.0035976252984255552 -0.061781588941812515 0.07942136377096176 -0.018175071105360985 0.10581306368112564 -0.09887698292732239 0.09266147017478943 0.0730416551232338 -0.10662510246038437 -0.10350960493087769 0.07675681263208389 -0.02823338471353054 -0.0668148547410965 -0.07809261232614517 0.191274031996727 -0.132208451628685 0.21447721123695374 0.03162631765007973 -0.009060254320502281 -0.09203904867172241 -0.009162820875644684 0.05819772928953171 -0.04121306166052818 0.01931498944759369 -0.0947219580411911 -0.017027955502271652 -0.15590423345565796 0.04767576605081558 -0.10606519877910614 0.03593965992331505 -0.04566885530948639 -0.006419098936021328 -0.04509516805410385 0.03798666596412659 0.13040341436862946 0.21373142302036285 -0.02840125933289528 0.17864082753658295 -0.03305944427847862 0.015872199088335037 0.04505564644932747 0.07610263675451279 0.04265990108251572
peppertopping -0.14221584796905518 -0.02276482991874218 -0.12556089460849762 0.12347327172756195 0.013129063881933689 -0.06198861822485924 0.07408951967954636 0.02718343771994114 -0.06333766132593155 -0.010716992430388927 -8.499657269567251E-6 0.23663687705993652 0.08377841860055923 0.07125606387853622 -0.007943646982312202 -0.034947752952575684 -0.006145999301224947 -0.1222684308886528 -0.006796559318900108 -0.010534589178860188 -0.1855846643447876 -0.08998902142047882 -0.001116184750571847 0.03999030217528343 0.08477536588907242 0.08720850199460983 -0.02319229021668434 -0.0648864209651947 -0.10877951234579086 0.08885566145181656 -0.14719736576080322 -0.022159777581691742 0.055519480258226395 -0.013664751313626766 -0.014984696172177792 0.10258425772190094 -0.002999088494107127 -0.10077829658985138 0.14708936214447021 0.026675641536712646 -0.04311463609337807 -0.10281933099031448 0.11900976300239563 -0.06232403591275215 -0.07444602996110916 0.09794987738132477 0.06540166586637497 0.2548558712005615 0.08733715862035751 -0.05437096580862999 0.006512881722301245 0.021922998130321503 0.06920468807220459 -0.056032177060842514 0.20362846553325653 -0.10761771351099014 -0.006416116375476122 -0.04960095137357712 -0.14522525668144226 0.11776518076658249 -0.03663249313831329 0.19622395932674408 -0.07600218057632446 0.22518932819366455 -0.06566569209098816 -0.07849569618701935 0.001659718225710094 0.02228682115674019 0.05065358802676201 0.0031135433819144964 0.012713219039142132 -0.23955346643924713 -0.08699272572994232 0.18316783010959625 -0.025524184107780457 0.0452352799475193 -0.009918744675815105 -0.03713243082165718 -0.08530247956514359 -0.20773416757583618 -0.12024157494306564 0.07054886966943741 -0.039445795118808746 -0.04526037722826004 0.342144638299942 -0.026828622445464134 0.021034227684140205 -0.026130178943276405 -0.0023231934756040573 -0.03517790138721466 0.031663402915000916 -0.009518039412796497 -0.0923062115907669 0.1492120623588562 0.04302108660340309 0.0017227544449269772 -0.07933559268712997 -0.12773066759109497 0.0017312809359282255 -0.10092151910066605
or....etc. 0.06681239604949951 -0.09802238643169403 0.010146217420697212 -0.14284172654151917 0.1706264168024063 0.051934726536273956 -0.009910093620419502 -0.014563762582838535 0.16655981540679932 -0.14982105791568756 -0.0752534568309784 -0.16098831593990326 -0.07854537665843964 0.12612126767635345 0.027209347113966942 -0.007644874509423971 -0.00861740205436945 0.026904182508587837 0.09555243700742722 -0.03282085806131363 0.02265271544456482 -0.2056519091129303 0.07894732058048248 0.13552434742450714 0.006066379602998495 -0.07984716445207596 0.03313501551747322 0.021012023091316223 -0.040562376379966736 0.032138243317604065 -0.021169040352106094 -0.028079170733690262 -0.12345989793539047 -0.022652946412563324 -0.11079718172550201 0.1281685084104538 0.1750001758337021 0.0023209082428365946 0.03630166873335838 0.07110936939716339 -0.037270113825798035 0.0320957712829113 -0.1790349781513214 -0.07024944573640823 -0.09107673913240433 -0.16934873163700104 -0.03657594695687294 -0.018219543620944023 0.2104889452457428 -0.11382686346769333 0.013170753605663776 0.1451425850391388 -0.07518056780099869 -0.08873218297958374 0.01891198568046093 0.07874071598052979 -0.15387120842933655 0.14645753800868988 -0.10922389477491379 -0.22693969309329987 -0.01268777810037136 0.02861337549984455 0.029664911329746246 0.08473840355873108 -0.026883430778980255 -0.02261197753250599 0.10099878162145615 0.0724104717373848 0.13379210233688354 0.20636893808841705 0.11568573862314224 -0.019986122846603394 0.0184465404599905 0.15763792395591736 0.07242511957883835 0.12314680218696594 -0.23239338397979736 -0.020876970142126083 0.05404723063111305 0.0015423903241753578 0.005763520486652851 -0.13589060306549072 -0.06481712311506271 -0.05251558497548103 0.0293185506016016 -0.0875578448176384 0.15676428377628326 -0.05582062527537346 -0.15004847943782806 -0.13792020082473755 0.09857966005802155 -0.0023856600746512413 0.026132453233003616 -0.039391010999679565 0.09650028496980667 0.0749199166893959 -0.12411440163850784 0.0680738314986229 -0.1203920766711235 -0.06431961059570312
meaty 0.015451735816895962 0.006395529955625534 -0.11130758374929428 -0.05378428474068642 0.15757150948047638 -0.058062344789505005 -0.038511380553245544 -0.14354048669338226 0.09376685321331024 -0.054054152220487595 0.08648479729890823 0.02677042968571186 0.042425647377967834 0.06447797268629074 -0.15773336589336395 0.18107153475284576 -0.06738470494747162 0.01965143159031868 -0.06697875261306763 0.018002331256866455 0.07840842008590698 -0.07522044330835342 0.05399271100759506 0.0020608375780284405 0.11434786021709442 -0.11818596720695496 -0.07752551138401031 0.07184577733278275 -0.006724630016833544 0.009757601656019688 0.03591383621096611 -0.12369832396507263 0.07092398405075073 0.09875218570232391 -0.041427094489336014 -0.2103700190782547 0.060916103422641754 -0.1243719831109047 0.19422820210456848 0.11208663135766983 0.11574628204107285 0.0558989979326725 -0.13687613606452942 -0.11197955906391144 0.09599190205335617 0.08589982986450195 -0.0219834316521883 0.023099038749933243 -0.13784629106521606 -0.0642407163977623 -0.11362002044916153 0.05999740585684776 0.0280244629830122 0.07164717465639114 0.09804167598485947 0.08959925919771194 0.1881425380706787 -0.005568073131144047 0.006934743840247393 -0.1618143916130066 -0.00612542824819684 0.18501189351081848 0.08247236162424088 -0.11719641089439392 0.15142618119716644 -0.04246825724840164 0.11713137477636337 0.03272028639912605 0.06898406147956848 -0.11153750121593475 -0.13232387602329254 -0.12839137017726898 -0.13292089104652405 -0.01692918688058853 -0.03909922391176224 0.11547505110502243 -0.06014131009578705 0.16500970721244812 -0.22763465344905853 -0.14529256522655487 -0.10935810208320618 -0.06500321626663208 0.005137198138982058 -0.09276123344898224 -0.026478832587599754 -0.10898782312870026 -0.14989425241947174 0.07943884283304214 0.1498994529247284 0.06817523390054703 0.009437165223062038 -0.09865187853574753 -0.08386871963739395 -0.03398497775197029 0.0375678613781929 0.05612174794077873 0.08256162703037262 -0.14687497913837433 0.0680462121963501 0.14046192169189453
ad 0.056399330496788025 -0.0840543881058693 0.13793885707855225 -0.08879009634256363 -0.14162085950374603 -0.05736624822020531 -0.002459368435665965 0.03775704652070999 -0.09281312674283981 -0.2392241209745407 -0.01510692574083805 0.043996088206768036 0.11952642351388931 0.16492651402950287 -0.012331146746873856 0.055694419890642166 0.02861258015036583 -0.04404342547059059 -0.044922035187482834 0.11257518082857132 -0.018796687945723534 -0.12670844793319702 0.051701128482818604 0.03307890519499779 0.03647984564304352 0.044683169573545456 -0.12985484302043915 -0.017913125455379486 -0.16450577974319458 -0.026680056005716324 -0.09531908482313156 0.05073799192905426 -0.05543552711606026 0.018520668148994446 0.03152645006775856 -0.11612538248300552 -0.07764645665884018 0.0012220790376886725 0.2490626573562622 -0.076690673828125 0.10856777429580688 0.04450618475675583 -0.3690653145313263 -0.06638175249099731 -0.15219427645206451 0.10145958513021469 0.1396489441394806 0.15609219670295715 0.06726767867803574 0.020632706582546234 0.01334330253303051 0.02285398729145527 0.09451279789209366 0.06664738059043884 0.01666535809636116 0.02515983022749424 0.011510618031024933 0.08363910764455795 0.07656586170196533 0.08486728370189667 0.024061493575572968 0.025936361402273178 -0.010693150572478771 0.13370537757873535 -0.04290853068232536 0.1283254325389862 0.023540997877717018 -0.12969514727592468 0.11985509097576141 0.07863577455282211 -0.10076908767223358 0.03482843190431595 -0.08045380562543869 0.09977374225854874 -0.054440755397081375 0.06588402390480042 -0.02451794594526291 0.01187454629689455 -0.14591944217681885 -0.057025328278541565 -0.0726071298122406 -0.12988945841789246 -0.03461669757962227 -0.0017151751089841127 -0.14193473756313324 -0.015045199543237686 -0.0212849210947752 0.00676720030605793 -0.05543971061706543 0.22463491559028625 0.05691725015640259 -0.06101451814174652 0.05248276889324188 0.041597966104745865 -0.24199441075325012 0.17602604627609253 -0.07441334426403046 -0.11710100620985031 0.09053964912891388 0.04493703693151474
leektopping -0.10531554371118546 0.008179204538464546 0.03960306942462921 -0.08974385261535645 0.11693131178617477 -0.07069626450538635 0.1243232935667038 -0.009777707979083061 0.038991011679172516 0.08558732271194458 -0.16636455059051514 -0.08178100734949112 -0.04013989865779877 0.0833536684513092 -0.2721726596355438 0.046809956431388855 -0.08436699211597443 -0.04923480376601219 0.006946312729269266 0.10304643958806992 -0.06458237022161484 -0.05477238446474075 -0.04570779949426651 0.02870289422571659 -0.052651748061180115 -0.01568123698234558 -0.10578133165836334 0.048709530383348465 -0.06789456307888031 0.001695343409664929 0.046701379120349884 0.0344151072204113 -0.0644131600856781 -0.022763803601264954 -0.023614073172211647 0.09919434040784836 0.14774808287620544 0.06258214265108109 0.1068434938788414 0.03663405776023865 -0.02915484458208084 -0.0607735849916935 0.1000143364071846 0.03858065605163574 0.07986485213041306 0.02669130079448223 0.07736622542142868 0.1151384636759758 0.12439476698637009 0.09331098198890686 0.006151021923869848 0.0917113646864891 0.11475878208875656 0.0018171072006225586 0.09892874211072922 0.24878768622875214 -0.15964847803115845 0.057709962129592896 -0.0784357488155365 -0.13174377381801605 0.01117372140288353 0.24530498683452606 0.10397293418645859 0.03772713989019394 -0.22674590349197388 -0.018421320244669914 0.19464653730392456 -0.12919548153877258 0.002229744801297784 0.07427769899368286 -0.07506224513053894 -0.06784532219171524 -0.12416017800569534 0.112712062895298 0.07204456627368927 -0.014580989256501198 0.0058847879990935326 0.22079384326934814 0.11634059250354767 0.1555405706167221 -0.07928894460201263 0.07463684678077698 0.016086511313915253 -0.11825034022331238 -0.030085628852248192 0.006100470665842295 9.819611441344023E-4 -0.08684860914945602 -0.25795572996139526 -0.06124844402074814 -0.034513264894485474 0.16716228425502777 -0.06923551112413406 0.010532879270613194 -0.10257723182439804 0.09194821864366531 0.005313454661518335 -0.11832239478826523 0.08869673311710358 -0.043709684163331985
mild 0.13091382384300232 0.08273157477378845 0.15344306826591492 -0.17000031471252441 -0.036342065781354904 0.045452166348695755 0.15196214616298676 -0.020680299028754234 -0.08146151155233383 0.03675748035311699 -0.026171158999204636 -0.028232676908373833 0.07905774563550949 -0.022633858025074005 0.06449037045240402 -0.04431711509823799 0.035596828907728195 0.013202089816331863 0.039812542498111725 -0.010266288183629513 -0.22852277755737305 0.020897921174764633 0.135377898812294 0.09732189774513245 -0.19904999434947968 -0.1838407963514328 -0.03420957922935486 -0.09454237669706345 -0.0926191657781601 -0.05209290236234665 0.07059811800718307 -0.049789898097515106 -0.11643224954605103 -0.07915409654378891 0.0684717521071434 -0.023521892726421356 -0.07274341583251953 0.08941320329904556 0.13397589325904846 -0.049156490713357925 -0.07821393758058548 0.13297443091869354 0.014453303068876266 -0.12074405699968338 0.042227212339639664 0.05960903316736221 0.00262088212184608 0.05007036402821541 0.007577394135296345 -0.0962938442826271 0.05424720048904419 0.004891545046120882 -0.10386257618665695 0.06806939095258713 0.016999460756778717 -0.012960284017026424 0.008262399584054947 -0.056039098650217056 -0.0798509418964386 0.11557897180318832 -0.12557917833328247 0.13202190399169922 0.0016609800513833761 0.1715250015258789 0.0213394146412611 0.020728083327412605 0.10449813306331635 0.12481985986232758 0.19540245831012726 -0.08352958410978317 -0.001824342180043459 -0.1316138654947281 -0.022111671045422554 0.04783901944756508 0.12320542335510254 0.07579948008060455 -0.1007346510887146 0.2701168954372406 -0.035217203199863434 -0.03279716521501541 -0.04873913154006004 0.044355057179927826 -0.13544322550296783 -0.045750562101602554 0.1634204238653183 0.08682595938444138 -0.1715950220823288 -0.05421016365289688 -0.1895376294851303 -0.05078813433647156 0.1330021768808365 0.010005973279476166 0.017029698938131332 -0.050604864954948425 0.05305638909339905 -0.31382858753204346 0.008892129175364971 -0.10414388030767441 0.08682367950677872 -0.014982103370130062
( 0.009926133789122105 -0.05948631837964058 0.14711855351924896 0.03094051033258438 0.13412903249263763 0.17479214072227478 -0.020233875140547752 -0.15151120722293854 0.09624439477920532 -0.07717005163431168 0.010381927713751793 -0.10201627016067505 -0.10938829183578491 0.1330699920654297 7.574922638013959E-4 0.07926103472709656 -0.07464542239904404 -0.04230938106775284 -0.05321898311376572 0.010265816003084183 0.013451731763780117 -0.10556042194366455 0.04527837038040161 0.14558297395706177 -0.060956355184316635 -0.14202286303043365 0.07093775272369385 -0.13350246846675873 0.11200810968875885 -0.12349147349596024 0.006614820100367069 0.006209205370396376 0.02836736850440502 -0.12169945985078812 -0.002945234067738056 0.191658616065979 0.14211739599704742 -0.058238327503204346 0.17996008694171906 0.12825551629066467 0.04991229623556137 0.02634735032916069 -0.06271502375602722 -0.05521547421813011 -0.19410128891468048 -0.022350981831550598 -0.027266964316368103 -0.0470314584672451 0.20566566288471222 -0.06606731563806534 0.04347395896911621 0.050285935401916504 0.08041775971651077 -0.0784379094839096 0.13880038261413574 0.028275607153773308 -0.22797375917434692 0.045771047472953796 0.034966401755809784 -0.15662378072738647 -0.17700232565402985 0.12941874563694 0.10762374103069305 0.06366614997386932 0.1799732744693756 0.12204227596521378 0.019905490800738335 0.06598429381847382 0.1631249189376831 -0.08504682779312134 0.07611939311027527 -0.04878886044025421 -0.07554101198911667 0.1334702968597412 0.11502913385629654 0.005248990375548601 -0.024164507165551186 -0.040269918739795685 -0.010521014221012592 0.028620807453989983 0.07765472680330276 -0.10154564678668976 -0.07195576280355453 -0.0781739354133606 -0.04999559745192528 -0.10765063017606735 0.16077442467212677 0.0729324147105217 -0.16668327152729034 -0.10901421308517456 0.025328220799565315 0.006329663563519716 0.12756212055683136 -0.04261054843664169 0.07633595913648605 -0.09538385272026062 0.030007075518369675 0.10145760327577591 -0.15996573865413666 0.017200933769345284
) 0.014288011938333511 0.057447537779808044 0.128731831908226 0.023717956617474556 0.04981682822108269 0.046171367168426514 -0.07579958438873291 -0.07011517137289047 0.01578024961054325 -0.16033077239990234 -0.029392529278993607 -0.13575680553913116 -0.04686491936445236 0.09618829935789108 -0.043030738830566406 0.0684325098991394 -0.06358257681131363 -0.09696726500988007 0.0732947364449501 0.09664712101221085 -0.01785903051495552 -0.1698630154132843 -0.0089454660192132 0.17674319446086884 0.03380372375249863 -0.15550446510314941 0.038643527776002884 -0.051788751035928726 0.015391668304800987 -0.01990477181971073 0.08516298979520798 -0.08390876650810242 -0.19477953016757965 -0.07310332357883453 -0.07297123223543167 0.13190989196300507 0.19991208612918854 0.04383804649114609 0.06783091276884079 0.15686367452144623 0.008316189050674438 0.023968078196048737 -0.1571246236562729 -0.07145059108734131 0.07860640436410904 -0.10878249257802963 -0.01932513900101185 0.031123707070946693 0.11050822585821152 -0.11445443332195282 -0.03838087618350983 0.12332673370838165 0.10536375641822815 0.006537531036883593 0.07334385067224503 0.015138299204409122 -0.19557476043701172 0.09517910331487656 0.0054599829018116 -0.263110876083374 -0.2394903153181076 0.16284328699111938 -0.04786917194724083 0.13480566442012787 -0.05655568465590477 -0.05272866412997246 -0.034650202840566635 0.13736537098884583 0.07373388111591339 -0.013936427421867847 0.03718983009457588 0.006744054611772299 -0.011750235222280025 0.10266859829425812 0.013162003830075264 0.16222338378429413 -0.02941657230257988 -0.007078444119542837 -0.053900573402643204 -0.01998016983270645 0.06515026837587357 -0.19900517165660858 -0.05584145337343216 0.04189508035778999 0.05041229724884033 0.020837904885411263 0.12849821150302887 -0.021667513996362686 -0.09487273544073105 -0.14303849637508392 -0.08869627863168716 0.06267713010311127 0.2222498208284378 0.081048384308815 0.19456037878990173 0.09024306386709213 -0.0735083743929863 0.015152724459767342 -0.09567318111658096 0.007488794159144163
require 0.033336296677589417 0.07850350439548492 0.07235004752874374 0.0807996466755867 -0.08263112604618073 0.005742434412240982 -0.12411902099847794 0.07553724199533463 -0.10592327266931534 -0.014516151510179043 -0.05359819903969765 -0.0727585181593895 -0.08587250858545303 0.1375868171453476 0.045332323759794235 0.06471530348062515 0.021618349477648735 -0.16221883893013 0.07653640955686569 0.1000683456659317 0.06907691061496735 -0.2184893935918808 0.008144601248204708 -0.026121441274881363 -0.022354785352945328 -0.16899600625038147 0.05706298351287842 -0.046623583883047104 0.053560953587293625 0.007446891628205776 -0.0037919175811111927 -0.07450836896896362 0.06478624045848846 -0.19592969119548798 -0.16409850120544434 0.19184856116771698 0.04064707085490227 0.04654547944664955 0.18449126183986664 0.17011898756027222 0.05154214799404144 0.04784752056002617 -0.1090475395321846 0.10237293690443039 -0.011905782856047153 -0.06865492463111877 0.13465216755867004 0.08627805858850479 -0.06253430992364883 -0.12196402251720428 0.04583626985549927 -0.09578976035118103 0.036579567939043045 0.05006982758641243 -0.09875573217868805 0.07206045091152191 -0.014281339012086391 -0.040773656219244 0.002125808969140053 -0.16378767788410187 -0.05841562896966934 0.1214519515633583 -0.07780154794454575 0.18215163052082062 -0.08006832748651505 -0.06271611154079437 -0.0644821971654892 0.0694241151213646 0.1318092942237854 0.0037358873523771763 0.023134587332606316 0.07946589589118958 0.07632365077733994 0.009246328845620155 0.0584392324090004 0.2136678546667099 -0.07426557689905167 -0.13517124950885773 -0.14922791719436646 -0.026998156681656837 -0.048594795167446136 -0.19416610896587372 0.03990111127495766 0.016170164570212364 -0.029352551326155663 -0.10814537853002548 -0.12430188804864883 -0.11133633553981781 -0.023283664137125015 -0.0015368970343843102 -0.03396599367260933 0.1719590574502945 0.26412975788116455 -0.04952727630734444 0.20687934756278992 0.07110581547021866 -0.05460968241095543 -0.10895123332738876 -0.04282192885875702 0.02180638536810875
, 0.08079899847507477 -0.0038010533899068832 0.05605262890458107 0.06497940421104431 -0.055243611335754395 0.025793379172682762 -0.1659795045852661 -5.823438987135887E-4 0.1564844697713852 -0.06469918042421341 -0.06117349490523338 -0.12967517971992493 -0.10787873715162277 0.12669813632965088 0.031167518347501755 0.07013710588216782 0.06610924005508423 0.0925770252943039 -0.05742097273468971 -0.010522770695388317 0.07810205966234207 -0.08378391712903976 0.014045562595129013 0.04179602488875389 -0.016262618824839592 -0.14629153907299042 0.003112338948994875 -0.1598377227783203 0.06278344243764877 -0.15068955719470978 -0.11635944247245789 -0.08985953778028488 0.07092632353305817 -0.08072593808174133 0.045788489282131195 0.1608012616634369 0.10786442458629608 -0.08016200363636017 0.17197632789611816 0.056205641478300095 0.04821966588497162 0.10507164150476456 -0.04809180274605751 -0.007637845817953348 -0.1675584763288498 -0.008961834944784641 -0.04690459743142128 0.056503020226955414 0.15217925608158112 -0.07400564849376678 0.05286771431565285 -0.04342786222696304 0.11218216270208359 -0.09292619675397873 0.15176530182361603 -0.04269690066576004 -0.005210275296121836 0.1104818657040596 -0.11605734378099442 -0.0712287500500679 -0.16370077431201935 0.09122994542121887 -0.001303386758081615 0.06664935499429703 0.12022039294242859 -0.00670806597918272 -0.03952808305621147 0.22106985747814178 0.22376495599746704 -0.13504303991794586 0.0660179853439331 0.07313096523284912 -0.18005283176898956 0.06364133208990097 0.11352686583995819 0.13526390492916107 -0.16837720572948456 0.021471668034791946 -0.09591467678546906 -0.11283848434686661 0.2011175900697708 -0.21476908028125763 -0.021645599976181984 0.017201904207468033 -0.05838814005255699 -0.048400815576314926 0.018513286486268044 0.10738876461982727 0.11690555512905121 -0.16060428321361542 -0.06677944213151932 -0.11154414713382721 0.062106288969516754 -0.02494017407298088 0.09674274921417236 0.0022578113712370396 -0.06844369322061539 0.09440083056688309 -0.0735071673989296 -0.016888033598661423
Subclasses 0.1170806810259819 -0.01111361850053072 0.12348266690969467 -0.07968121021986008 0.12123604863882065 0.17071619629859924 -0.06891758739948273 -0.07606465369462967 0.07065010070800781 -0.15861141681671143 -0.10254252701997757 -0.1531985104084015 -0.14264580607414246 0.16077794134616852 0.045072633773088455 -0.09766049683094025 -0.050464339554309845 -0.047113850712776184 -0.015376970171928406 0.007919443771243095 0.011320216581225395 -0.17509974539279938 0.06257884949445724 0.11875149607658386 -0.04773518070578575 -0.06623703241348267 -0.05414293706417084 0.006704847794026136 0.0023982571437954903 0.08438006788492203 0.02295702137053013 0.029577387496829033 -0.016472600400447845 -0.12502790987491608 -0.0876070186495781 0.11786673218011856 0.1678817868232727 -0.07459881156682968 0.122480608522892 0.06869357824325562 0.05057221278548241 -0.021153096109628677 -0.0848337784409523 -0.06741810590028763 -0.1979597806930542 -0.16442257165908813 -0.06153424084186554 0.06986013799905777 0.08433910459280014 -0.026181763038039207 0.013344078324735165 0.07932664453983307 -0.006833192426711321 -0.04727209731936455 0.0413944385945797 0.08819132298231125 -0.10773240029811859 0.059362202882766724 -0.08378474414348602 -0.1849016547203064 -0.09401760250329971 0.15859566628932953 0.014724606648087502 0.09212938696146011 0.04563480243086815 0.01702532358467579 0.00826654490083456 0.18133363127708435 0.08826342970132828 0.0016871958505362272 -0.07770783454179764 0.06760366261005402 -0.03764728829264641 0.15883587300777435 0.14202255010604858 0.036198731511831284 -0.17167343199253082 0.012229512445628643 0.07458832114934921 0.042031459510326385 0.06301664561033249 -0.07753168791532516 -0.04442809522151947 -0.034709490835666656 -0.012527444399893284 -0.11746177077293396 0.08735434710979462 -0.03557449206709862 -0.2532431185245514 -0.16216595470905304 0.023135656490921974 0.09520552307367325 0.2793884575366974 -0.13859431445598602 0.030867019668221474 0.004263333044946194 -0.08229656517505646 0.046511534601449966 -0.0972643569111824 -0.1382761299610138
Hot -0.006635273806750774 -0.005777136422693729 -0.03379388153553009 -0.008458892814815044 0.1523720622062683 0.041457969695329666 -0.11171074211597443 -0.044196825474500656 0.12500494718551636 -0.025652684271335602 0.06377752870321274 -0.09588386118412018 0.11457598209381104 0.04837207496166229 -0.061005230993032455 -0.04358766973018646 -0.0290177334100008 0.15971097350120544 -0.06311658769845963 0.15377753973007202 0.02139137126505375 0.14212830364704132 0.16759702563285828 0.031571269035339355 -0.07940961420536041 0.06137874722480774 -0.028267158195376396 0.00814235582947731 -0.04706871137022972 0.10780294984579086 -0.16102637350559235 2.965032763313502E-4 0.035125505179166794 -0.05422060191631317 -0.06905996799468994 0.02685120888054371 -0.013331127353012562 0.03092234954237938 0.13069233298301697 0.1652831733226776 0.1298033446073532 -0.12655358016490936 0.09735120832920074 -0.08682571351528168 -0.17017483711242676 0.12437903881072998 0.009723508730530739 0.17275938391685486 -0.015975672751665115 -0.14537668228149414 0.06607124954462051 -0.28218576312065125 0.05371227115392685 0.11502598971128464 0.06057737022638321 -0.07772098481655121 0.012159591540694237 -0.09342920780181885 0.0862957313656807 0.13420337438583374 0.010539660230278969 0.08163444697856903 -0.037355899810791016 0.06054055318236351 0.11750306934118271 0.11668693274259567 -0.027033096179366112 0.13894835114479065 0.012312980368733406 0.0105582969263196 -0.021418042480945587 0.029236989095807076 -0.12961991131305695 0.10341150313615799 -0.017612086609005928 -0.06996797025203705 -0.04362008720636368 0.011974113993346691 0.01803760975599289 -0.009209569543600082 0.19200499355793 -0.027847226709127426 0.0562576986849308 -0.12600219249725342 -0.020642178133130074 -0.19629187881946564 0.16426247358322144 0.13854368031024933 -0.16875357925891876 0.004747821018099785 0.17601609230041504 -0.004818038549274206 0.22960764169692993 0.06560584902763367 0.10470351576805115 0.06462633609771729 0.08514828979969025 0.13816796243190765 0.11132900416851044 -0.03217514231801033
an -0.13255949318408966 0.1173526719212532 0.15203611552715302 0.12457066774368286 -0.013879730366170406 -0.20626288652420044 -0.17667341232299805 0.028175953775644302 -0.0820058211684227 0.16077452898025513 -0.08977318555116653 -0.0849621593952179 -0.10535351186990738 0.10389933735132217 -0.006866685580462217 -0.006634892430156469 0.0462338887155056 -0.13402150571346283 -0.10810400545597076 -0.003947680350393057 0.07397814095020294 -0.13872790336608887 -0.0018172914860770106 0.09319350123405457 0.020801961421966553 -0.09755139797925949 -0.03930242359638214 0.013709122315049171 0.13650575280189514 -0.09885944426059723 0.0999690517783165 -0.054567281156778336 0.08418475836515427 -0.15884342789649963 -0.024603143334388733 0.24098019301891327 0.06450767070055008 0.007646247278898954 0.21453619003295898 0.019876262173056602 0.14977192878723145 0.034956518560647964 -0.1367632895708084 0.1683531105518341 -0.0900457501411438 0.028506601229310036 -0.008550853468477726 0.23670127987861633 -0.06113595888018608 -0.12461875379085541 0.022012660279870033 -0.14812102913856506 0.08382514864206314 0.04356670007109642 -0.03451910987496376 0.017076855525374413 -0.10864005982875824 -0.008665112778544426 -0.05917638912796974 -0.09956417977809906 -0.010389606468379498 0.03672852739691734 0.03484360873699188 0.0134423291310668 0.13169005513191223 -0.08682937175035477 -0.03694755956530571 -0.05368578061461449 -0.012523805722594261 -0.10952093452215195 0.09556777775287628 0.12623728811740875 0.051871560513973236 -0.0798318162560463 0.18328142166137695 0.12541928887367249 -0.05681336298584938 -0.034660905599594116 -0.166513592004776 -0.08901258558034897 0.11119740456342697 -0.11327967047691345 0.10270833969116211 0.07588977366685867 -0.09963475912809372 -0.17268358170986176 -0.020621327683329582 -0.07597139477729797 -0.10062064975500107 -0.09662151336669922 0.05550111085176468 0.04234941676259041 -0.00788100529462099 -0.1019969955086708 0.13035336136817932 0.06530807912349701 -0.031151864677667618 0.015944363549351692 3.301731194369495E-4 0.005264188628643751
- 0.035397034138441086 0.11805352568626404 0.07362174242734909 0.033582936972379684 0.2338929921388626 -0.010635744780302048 0.030731359496712685 -0.050958309322595596 -0.037997666746377945 0.031160447746515274 -0.13839301466941833 -0.09939052164554596 -0.14756913483142853 0.11914926767349243 -0.04286333918571472 -0.006644205190241337 -0.06753958761692047 -0.06271935999393463 -0.08981508761644363 0.021495912224054337 0.11203239858150482 -0.10013360530138016 0.1397053599357605 0.1363794207572937 -0.1164010614156723 -0.04228257015347481 0.18453246355056763 -0.018574317917227745 0.0030782378744333982 -0.020628223195672035 -0.1192152202129364 0.05061858892440796 -0.08989635854959488 -0.03389197215437889 -0.019720006734132767 0.16919027268886566 0.1407608985900879 -0.06310752034187317 0.1633089929819107 0.14509578049182892 -0.03500678762793541 -0.028774654492735863 0.04320767894387245 -0.06482343375682831 0.07901126891374588 0.025986766442656517 -0.017632903531193733 0.09264270961284637 0.15987145900726318 -0.20428691804409027 0.07087113708257675 0.0016031486447900534 0.02221725322306156 -0.09231416136026382 0.02382003888487816 0.02291715145111084 -0.21689647436141968 0.04491609334945679 -0.10378225892782211 -0.16668806970119476 -0.2204626053571701 0.13859783113002777 0.022984033450484276 0.02296900749206543 0.05614631623029709 0.10900834947824478 -0.08505996316671371 -0.018092051148414612 0.15789403021335602 0.016921615228056908 0.09881922602653503 0.08758194744586945 -0.12456236779689789 0.036119576543569565 0.1355438232421875 0.11132147163152695 -0.12109429389238358 -0.0184671301394701 0.02894020266830921 -0.027226800099015236 0.15018589794635773 -0.21580716967582703 -0.0684175044298172 0.039970505982637405 -0.061989471316337585 -0.12044144421815872 0.07099203765392303 0.04481607675552368 -0.023896269500255585 -0.10507290065288544 0.13774853944778442 0.05524234473705292 0.13053658604621887 0.014867924153804779 0.08171497285366058 0.1441192924976349 -0.07231156527996063 0.10967076569795609 -0.07095511257648468 0.049690015614032745
MozzarellaTopping 0.10951755195856094 0.0023484034463763237 0.020606722682714462 0.014394606463611126 0.06433122605085373 0.10109113901853561 0.10018263012170792 -0.07883140444755554 -0.023907208815217018 -0.009702734649181366 -0.15390700101852417 -0.06249397620558739 -0.013656857423484325 0.1627497524023056 -0.169248566031456 -0.007809358648955822 -0.1300063580274582 0.14227023720741272 -0.26704344153404236 0.123301200568676 -0.027819249778985977 -0.01798384264111519 0.04930999130010605 0.056847117841243744 0.010082912631332874 -0.037209849804639816 -0.054357320070266724 0.0520348995923996 4.2848838347708806E-5 -0.2498854249715805 -0.0140681816264987 -0.0614783801138401 0.03573283553123474 -0.1986292153596878 -0.02632511779665947 0.05781824514269829 0.06767506152391434 0.037196382880210876 0.005151274148374796 0.13819576799869537 0.05003844201564789 0.15936589241027832 0.030074235051870346 -0.023506302386522293 -0.041649945080280304 0.04796963185071945 -0.0838240459561348 0.06654885411262512 0.0748710185289383 -0.0032211472280323505 0.10074327141046524 -0.13313370943069458 -0.11895659565925598 0.04320317879319191 0.0033358943182975054 -0.09545782208442688 -0.23390762507915497 -0.10413211584091187 -0.04871539771556854 0.037588931620121 -0.023608500137925148 0.15791629254817963 -0.15190334618091583 0.061058491468429565 -0.00544289406388998 -0.025994854047894478 -0.16958341002464294 -0.014584566466510296 0.1720477193593979 0.022570515051484108 -0.11403555423021317 0.11016092449426651 -0.0021031759679317474 0.235904723405838 0.1540680080652237 -0.01613439805805683 -0.04402104765176773 0.04453803598880768 0.013157587498426437 -8.717643795534968E-4 0.09219435602426529 -0.05346019193530083 0.018310319632291794 -0.10854397714138031 -0.198699951171875 -0.08986512571573257 0.04295525699853897 -0.1035614013671875 -0.11434594541788101 -0.14223556220531464 0.15537439286708832 0.08722043037414551 0.13548855483531952 -0.14163576066493988 0.019849766045808792 -0.012382307089865208 0.07071509957313538 0.04436413198709488 0.09147287905216217 -0.050275616347789764
. 0.04195068031549454 -0.03280458226799965 0.1183151826262474 -0.08773281425237656 0.005178581923246384 -0.059221260249614716 -0.22666428983211517 0.04196935147047043 0.12615619599819183 -0.08141763508319855 -0.0399598553776741 -0.11858557164669037 -0.19457009434700012 0.14186426997184753 -0.0015912260860204697 0.06120992824435234 0.01650671847164631 -0.0739373043179512 0.018549781292676926 -0.06614184379577637 -0.0341288186609745 -0.13954372704029083 0.06878252327442169 0.12905147671699524 -0.03948086500167847 -0.13647812604904175 0.029663540422916412 -0.17737974226474762 0.0424511656165123 -0.07409246265888214 -0.06402408331632614 -0.15217280387878418 -0.04306170344352722 -0.11244851350784302 0.07340515404939651 0.06350906938314438 0.05098879709839821 0.0825362503528595 0.06263886392116547 0.19362744688987732 0.034909557551145554 0.08568713068962097 -0.17839489877223969 -0.029882028698921204 -0.05675007030367851 -0.15242540836334229 0.024610748514533043 0.07605208456516266 0.03717635199427605 -0.10454688221216202 -0.05045632645487785 0.10217488557100296 0.08618248254060745 -0.07628355175256729 0.06976431608200073 -0.10180020332336426 -0.09717115759849548 0.06635027378797531 -0.011447833850979805 -0.17556332051753998 -0.0880858302116394 0.10185053944587708 -0.047279465943574905 0.08475645631551743 0.05477990210056305 -0.010971058160066605 -0.1078043133020401 0.09277107566595078 0.10714447498321533 -0.037621770054101944 0.09752031415700912 0.11776040494441986 -0.11314231157302856 -0.032021716237068176 0.07315070927143097 0.12185235321521759 -0.2419378012418747 -0.06858992576599121 -0.12449025362730026 -0.030475080013275146 0.046908844262361526 -0.10232780873775482 0.008685103617608547 -0.02976192533969879 -0.12321250140666962 -0.13925378024578094 -0.002372870920225978 -0.07599399983882904 -0.036373987793922424 -0.2900168001651764 -0.09209337830543518 -0.08160530775785446 0.18217693269252777 0.01928105019032955 0.09534250199794769 0.022725636139512062 -0.13951411843299866 -0.049821097403764725 -0.05016258358955383 -0.09384513646364212
Herb -0.12388857454061508 0.041758835315704346 -0.029063181951642036 -0.0332898311316967 0.10676777362823486 -0.012272006832063198 -0.028350647538900375 -0.06850912421941757 0.05789237841963768 -0.04203848913311958 -0.02388826757669449 -0.13770072162151337 -0.10297767072916031 0.140587717294693 -0.14839579164981842 -0.12384647876024246 0.00612838426604867 0.11638619750738144 -0.0017475428758189082 0.04467194154858589 0.12124481052160263 0.018003977835178375 0.10771382600069046 0.027582302689552307 0.050209272652864456 -0.009097193367779255 -0.06921491771936417 0.02330421470105648 -0.04271019250154495 -0.08848565816879272 -0.09365212917327881 0.011308050714433193 0.01794348657131195 -0.1476925164461136 -0.1415710300207138 0.06127232685685158 0.09825257956981659 -0.01693529076874256 0.07043636590242386 0.2434038668870926 0.16868098080158234 -0.03478425368666649 0.03409257158637047 -0.1028219684958458 -0.030444446951150894 -0.08811532706022263 -0.13457441329956055 0.2204151302576065 -0.05655363202095032 -0.09619592130184174 -0.06682630628347397 -0.11789385974407196 -0.031114652752876282 0.030743421986699104 0.004968800116330385 -0.04075128957629204 -0.03467421606183052 -0.008881410583853722 -0.08047763258218765 -0.1296609342098236 -0.020252125337719917 0.11605051159858704 -0.0365338958799839 0.12058527022600174 0.11410123109817505 -0.06542760133743286 -0.17099744081497192 0.1502765268087387 0.11464402824640274 0.1166667714715004 -0.15155945718288422 0.08931858092546463 -0.11190038174390793 0.22089487314224243 -0.06196768954396248 -0.09202801436185837 -0.1668395847082138 0.05341143533587456 0.05648772045969963 -0.008315296843647957 0.07575918734073639 0.01926013082265854 0.06491783261299133 -0.15050508081912994 -0.04532846808433533 -0.16095606982707977 -0.0395168736577034 0.008641467429697514 -0.14192382991313934 -0.059060659259557724 0.0827644094824791 0.040260642766952515 0.21658314764499664 0.04250467196106911 0.21888349950313568 0.06831259280443192 0.06126061826944351 0.18385812640190125 0.05574163421988487 0.07375209033489227
as -0.006715200841426849 -0.1096758171916008 0.1649857759475708 0.007523613981902599 0.14994803071022034 0.084615059196949 -0.04540662840008736 -0.06815126538276672 0.038566704839468 0.062014881521463394 -0.03291114792227745 -0.06597097963094711 -0.07199958711862564 0.07093171775341034 0.0861416757106781 -0.02088589407503605 -0.02640078030526638 -0.03741111233830452 -0.10896163433790207 0.05205007269978523 -0.007446408271789551 -0.03330591320991516 0.06662637740373611 0.15749657154083252 -0.0625755786895752 -0.14295224845409393 0.16077075898647308 -0.09816056489944458 0.061000846326351166 -0.07273825258016586 -0.041327014565467834 4.763645411003381E-4 -0.04569590464234352 -0.1331285685300827 -0.1473686546087265 0.1761004626750946 0.21842844784259796 -0.026089686900377274 0.1905190348625183 0.14307549595832825 0.06464258581399918 0.0883132815361023 -0.1652609258890152 -0.11578188836574554 -0.151738241314888 -0.04486117511987686 -0.010534667409956455 0.009681238792836666 0.0717446580529213 -0.0997321754693985 -0.0719355121254921 0.09697476029396057 0.07189863175153732 -0.09291654825210571 0.07322008162736893 0.08158792555332184 -0.16527360677719116 0.0650266632437706 -0.08122681826353073 -0.183975487947464 -0.1625361144542694 0.11076699197292328 0.11345324665307999 0.03167201578617096 0.1865793913602829 0.023760344833135605 -0.042173683643341064 0.03407170996069908 0.2242598682641983 -0.0646468922495842 0.09512101113796234 -0.03717905282974243 -0.1008044183254242 0.17536336183547974 0.09176547080278397 0.1624331921339035 -0.05515776574611664 0.03106319159269333 -0.042840320616960526 0.07445350289344788 0.043812476098537445 -0.18832135200500488 -0.0901217833161354 -0.0322333388030529 0.09011328965425491 -0.09463510662317276 0.07231677323579788 0.03532170504331589 -0.010766390711069107 -0.15721935033798218 0.02435535006225109 0.04279974475502968 0.036285270005464554 0.05315221846103668 0.1570349931716919 0.06653764098882675 -0.11991826444864273 0.03200089558959007 -0.05351017042994499 0.05439766123890877
2 0.018628427758812904 -0.013726540841162205 0.1466287076473236 0.026035433635115623 -0.009832017123699188 0.13793087005615234 0.011532813310623169 -0.0698661357164383 0.24298617243766785 -0.023388532921671867 -0.013853775337338448 -0.06168461963534355 -0.08564998209476471 0.1451578140258789 0.06594640761613846 0.19291771948337555 -0.12374642491340637 -0.012223649770021439 -0.07163266837596893 -0.032955560833215714 -4.204557044431567E-4 -0.06627166271209717 0.09207161515951157 0.16548044979572296 0.06852033734321594 -0.19406083226203918 -0.08425173908472061 -0.11334311217069626 0.12765464186668396 -0.24106161296367645 -0.017409371212124825 -0.08133991062641144 0.06620397418737411 -0.17616787552833557 -0.0779089704155922 0.23625122010707855 0.029661603271961212 -0.10346557945013046 0.10678595304489136 0.15448342263698578 0.03910499066114426 -0.0156268198043108 0.008174200542271137 -0.051097724586725235 -0.1983780413866043 -0.0651024803519249 1.4824284880887717E-4 -0.186789408326149 0.19177968800067902 -8.850161102600396E-4 0.05371657758951187 -0.09666698426008224 -0.05127682536840439 0.01119297742843628 0.16924181580543518 0.0808599442243576 -0.09588486701250076 0.06170649826526642 0.027748359367251396 -0.004281496163457632 -0.08469536900520325 0.09157393127679825 -0.08604530245065689 0.02579597570002079 0.0596604160964489 0.06905537843704224 0.08416730910539627 -0.07421477884054184 0.11660966277122498 -0.07626021653413773 0.023719457909464836 0.016316428780555725 -0.017359990626573563 0.12190784513950348 0.05458479002118111 0.07038898766040802 -0.00994598027318716 -0.03876250982284546 -0.04102468490600586 -0.07325693964958191 0.06003750488162041 -0.12470465153455734 -0.08492244780063629 -0.12471449375152588 -0.0563976876437664 -0.05335387960076332 0.12213742733001709 0.04638371244072914 -0.04143527150154114 -0.06051049381494522 -0.013390461914241314 -0.0290068369358778 0.18360453844070435 -0.018176106736063957 0.0531608983874321 -0.13292841613292694 0.01408661250025034 -0.03451704978942871 -0.24817824363708496 -0.02708468586206436
